{"learner":{"attributes":{},"gradient_booster":{"model":{"gbtree_model_param":{"num_trees":"50","size_leaf_vector":"0"},"tree_info":[0,0,0,0,0,0,0,0,0,0,0,0,0,0,0,0,0,0,0,0,0,0,0,0,0,0,0,0,0,0,0,0,0,0,0,0,0,0,0,0,0,0,0,0,0,0,0,0,0,0],"trees":[{"base_weights":[6.31485953927040100e-02,-8.49704146385192871e-01,6.06124579906463623e-01,-1.38364776968955994e-01,-1.27651512622833252e+00,7.89962828159332275e-01,3.18379178643226624e-02,1.28898128867149353e-01,-9.55413997173309326e-01,-9.81029808521270752e-01,-1.59563922882080078e+00,5.82630991935729980e-01,1.14629507064819336e+00,5.71428596973419189e-01,-4.76190477609634399e-01],"default_left":[true,true,true,true,true,true,true,false,false,false,false,false,false,false,false],"id":0,"leaf_child_counts":[0,0,0,2,2,2,2,0,0,0,0,0,0,0,0],"left_children":[1,3,5,7,9,11,13,-1,-1,-1,-1,-1,-1,-1,-1],"loss_changes":[1.12293066406250000e+03,2.56371704101562500e+02,1.49945312500000000e+02,6.95638427734375000e+01,4.82231445312500000e+01,7.88259887695312500e+01,9.49831085205078125e+01,0.00000000000000000e+00,0.00000000000000000e+00,0.00000000000000000e+00,0.00000000000000000e+00,0.00000000000000000e+00,0.00000000000000000e+00,0.00000000000000000e+00,0.00000000000000000e+00],"parents":[2147483647,0,0,1,1,2,2,3,3,4,4,5,5,6,6],"right_children":[2,4,6,8,10,12,14,-1,-1,-1,-1,-1,-1,-1,-1],"split_conditions":[5.00000000000000000e-01,1.53500000000000000e+02,5.00000000000000000e-01,5.00000000000000000e-01,5.00000000000000000e-01,4.25000000000000000e+01,4.05000019073486328e+00,9.02286916971206665e-03,-6.68789818882942200e-02,-6.86720833182334900e-02,-1.11694745719432831e-01,4.07841689884662628e-02,8.02406519651412964e-02,4.00000028312206268e-02,-3.33333350718021393e-02],"split_indices":[3,4,2,2,9,7,5,0,0,0,0,0,0,0,0],"sum_hessian":[2.26350000000000000e+03,8.44000000000000000e+02,1.41950000000000000e+03,3.17000000000000000e+02,5.27000000000000000e+02,1.07500000000000000e+03,3.44500000000000000e+02,2.39500000000000000e+02,7.75000000000000000e+01,2.75750000000000000e+02,2.51250000000000000e+02,6.81250000000000000e+02,3.93750000000000000e+02,1.67000000000000000e+02,1.77500000000000000e+02],"tree_param":{"num_feature":"10","num_nodes":"15","size_leaf_vector":"0"}},{"base_weights":[9.70741212368011475e-02,-1.06296730041503906e+00,4.38901573419570923e-01,-1.25279918313026428e-01,-1.40619182586669922e+00,7.34242260456085205e-01,-2.77692258358001709e-01,-1.91398155689239502e+00,1.64294004440307617e-01,-1.69877755641937256e+00,-1.01218390464782715e+00,9.06099677085876465e-01,8.20443332195281982e-02,-8.93720388412475586e-01,9.74188297986984253e-02],"default_left":[true,true,true,true,true,true,true,false,false,false,false,false,false,false,false],"id":1,"leaf_child_counts":[0,0,0,2,2,2,2,0,0,0,0,0,0,0,0],"left_children":[1,3,5,7,9,11,13,-1,-1,-1,-1,-1,-1,-1,-1],"loss_changes":[9.22005432128906250e+02,1.70151184082031250e+02,3.80255249023437500e+02,7.43352203369140625e+01,4.29319458007812500e+01,1.42489074707031250e+02,1.21363967895507813e+02,0.00000000000000000e+00,0.00000000000000000e+00,0.00000000000000000e+00,0.00000000000000000e+00,0.00000000000000000e+00,0.00000000000000000e+00,0.00000000000000000e+00,0.00000000000000000e+00],"parents":[2147483647,0,0,1,1,2,2,3,3,4,4,5,5,6,6],"right_children":[2,4,6,8,10,12,14,-1,-1,-1,-1,-1,-1,-1,-1],"split_conditions":[4.55000000000000000e+01,1.26500000000000000e+02,1.55500000000000000e+02,5.00000000000000000e-01,3.95000000000000000e+01,5.00000000000000000e-01,5.00000000000000000e-01,-1.33978709578514099e-01,1.15005802363157272e-02,-1.18914432823657990e-01,-7.08528757095336914e-02,6.34269788861274719e-02,5.74310356751084328e-03,-6.25604242086410522e-02,6.81931804865598679e-03],"split_indices":[1,4,4,0,1,2,0,0,0,0,0,0,0,0,0],"sum_hessian":[2.32298461914062500e+03,5.28234375000000000e+02,1.79475024414062500e+03,1.41907882690429688e+02,3.86326477050781250e+02,1.27092150878906250e+03,5.23828796386718750e+02,1.89909439086914063e+01,1.22916946411132813e+02,2.19796554565429688e+02,1.66529922485351563e+02,1.00556164550781250e+03,2.65359832763671875e+02,1.97727401733398438e+02,3.26101379394531250e+02],"tree_param":{"num_feature":"10","num_nodes":"15","size_leaf_vector":"0"}},{"base_weights":[7.47797191143035889e-02,-8.41287255287170410e-01,5.96969485282897949e-01,-1.37281811237335205e+00,-2.38141462206840515e-01,-2.60850638151168823e-01,7.14167058467864990e-01,-8.43894109129905701e-02,-1.58636856079101563e+00,-9.62668836116790771e-01,1.97048008441925049e-01,-7.17644572257995605e-01,4.18176859617233276e-01,2.36853495240211487e-01,9.31591272354125977e-01],"default_left":[true,true,true,true,true,true,true,false,false,false,false,false,false,false,false],"id":2,"leaf_child_counts":[0,0,0,2,2,2,2,0,0,0,0,0,0,0,0],"left_children":[1,3,5,7,9,11,13,-1,-1,-1,-1,-1,-1,-1,-1],"loss_changes":[1.08758959960937500e+03,2.64322021484375000e+02,1.45762451171875000e+02,1.20542541503906250e+02,1.22500686645507813e+02,5.45142898559570313e+01,1.32018981933593750e+02,0.00000000000000000e+00,0.00000000000000000e+00,0.00000000000000000e+00,0.00000000000000000e+00,0.00000000000000000e+00,0.00000000000000000e+00,0.00000000000000000e+00,0.00000000000000000e+00],"parents":[2147483647,0,0,1,1,2,2,3,3,4,4,5,5,6,6],"right_children":[2,4,6,8,10,12,14,-1,-1,-1,-1,-1,-1,-1,-1],"split_conditions":[5.00000000000000000e-01,5.05000000000000000e+01,4.45000000000000000e+01,1.18500000000000000e+02,5.00000000000000000e-01,4.55000000000000000e+01,5.00000000000000000e-01,-5.90725895017385483e-03,-1.11045800149440765e-01,-6.73868209123611450e-02,1.37933604419231415e-02,-5.02351187169551849e-02,2.92723812162876129e-02,1.65797453373670578e-02,6.52113929390907288e-02],"split_indices":[3,1,1,4,0,7,0,0,0,0,0,0,0,0,0],"sum_hessian":[2.27152636718750000e+03,8.24504211425781250e+02,1.44702221679687500e+03,4.37592987060546875e+02,3.86911224365234375e+02,1.73785446166992188e+02,1.27323681640625000e+03,6.24150428771972656e+01,3.75177947998046875e+02,1.44735519409179688e+02,2.42175720214843750e+02,1.03860061645507813e+02,6.99253845214843750e+01,3.99124359130859375e+02,8.74112487792968750e+02],"tree_param":{"num_feature":"10","num_nodes":"15","size_leaf_vector":"0"}},{"base_weights":[6.12605139613151550e-02,-8.12714695930480957e-01,5.62612950801849365e-01,-3.20099964737892151e-02,-9.46525633335113525e-01,7.22792446613311768e-01,6.60452321171760559e-02,-1.29227602481842041e+00,1.82897403836250305e-01,-7.67655134201049805e-01,-1.25644946098327637e+00,3.56115877628326416e-01,8.72892796993255615e-01,5.17420351505279541e-01,-3.43314021825790405e-01],"default_left":[true,true,true,true,true,true,true,false,false,false,false,false,false,false,false],"id":3,"leaf_child_counts":[0,0,0,2,2,2,2,0,0,0,0,0,0,0,0],"left_children":[1,3,5,7,9,11,13,-1,-1,-1,-1,-1,-1,-1,-1],"loss_changes":[9.80474731445312500e+02,8.51863403320312500e+01,1.13049102783203125e+02,3.28432922363281250e+01,3.76378173828125000e+01,5.88547363281250000e+01,6.44600372314453125e+01,0.00000000000000000e+00,0.00000000000000000e+00,0.00000000000000000e+00,0.00000000000000000e+00,0.00000000000000000e+00,0.00000000000000000e+00,0.00000000000000000e+00,0.00000000000000000e+00],"parents":[2147483647,0,0,1,1,2,2,3,3,4,4,5,5,6,6],"right_children":[2,4,6,8,10,12,14,-1,-1,-1,-1,-1,-1,-1,-1],"split_conditions":[5.00000000000000000e-01,3.75000000000000000e+00,5.00000000000000000e-01,3.04999995231628418e+00,5.00000000000000000e-01,5.00000000000000000e-01,4.05000019073486328e+00,-9.04593244194984436e-02,1.28028178587555885e-02,-5.37358596920967102e-02,-8.79514589905738831e-02,2.49281115829944611e-02,6.11024945974349976e-02,3.62194254994392395e-02,-2.40319818258285522e-02],"split_indices":[3,5,2,5,2,0,5,0,0,0,0,0,0,0,0],"sum_hessian":[2.23561669921875000e+03,8.14729797363281250e+02,1.42088684082031250e+03,1.19391670227050781e+02,6.95338134765625000e+02,1.07399047851562500e+03,3.46896331787109375e+02,1.66629791259765625e+01,1.02728691101074219e+02,4.43089141845703125e+02,2.52248992919921875e+02,3.12925231933593750e+02,7.61065246582031250e+02,1.64855926513671875e+02,1.82040405273437500e+02],"tree_param":{"num_feature":"10","num_nodes":"15","size_leaf_vector":"0"}},{"base_weights":[8.69198590517044067e-02,-7.07243800163269043e-01,5.34847378730773926e-01,-4.82138365507125854e-01,-1.16256034374237061e+00,6.85354888439178467e-01,4.64866347610950470e-02,-2.17922851443290710e-01,-8.97034645080566406e-01,-7.43795275688171387e-01,-1.51670730113983154e+00,4.80919241905212402e-01,9.62938189506530762e-01,5.00733852386474609e-01,-3.83217126131057739e-01],"default_left":[true,true,true,true,true,true,true,false,false,false,false,false,false,false,false],"id":4,"leaf_child_counts":[0,0,0,2,2,2,2,0,0,0,0,0,0,0,0],"left_children":[1,3,5,7,9,11,13,-1,-1,-1,-1,-1,-1,-1,-1],"loss_changes":[8.11838317871093750e+02,8.37982788085937500e+01,1.07212402343750000e+02,6.03677520751953125e+01,3.91492309570312500e+01,6.28256835937500000e+01,6.74952621459960938e+01,0.00000000000000000e+00,0.00000000000000000e+00,0.00000000000000000e+00,0.00000000000000000e+00,0.00000000000000000e+00,0.00000000000000000e+00,0.00000000000000000e+00,0.00000000000000000e+00],"parents":[2147483647,0,0,1,1,2,2,3,3,4,4,5,5,6,6],"right_children":[2,4,6,8,10,12,14,-1,-1,-1,-1,-1,-1,-1,-1],"split_conditions":[5.00000000000000000e-01,5.00000000000000000e-01,5.00000000000000000e-01,1.31000000000000000e+02,4.25000000000000000e+00,3.95000000000000000e+01,4.05000019073486328e+00,-1.52545999735593796e-02,-6.27924278378486633e-02,-5.20656704902648926e-02,-1.06169514358043671e-01,3.36643457412719727e-02,6.74056708812713623e-02,3.50513681769371033e-02,-2.68251989036798477e-02],"split_indices":[3,2,2,8,5,7,5,0,0,0,0,0,0,0,0],"sum_hessian":[2.28012646484375000e+03,8.22058898925781250e+02,1.45806762695312500e+03,5.51473144531250000e+02,2.70585723876953125e+02,1.11426110839843750e+03,3.43806488037109375e+02,3.37848602294921875e+02,2.13624572753906250e+02,1.25402420043945313e+02,1.45183303833007813e+02,6.43250183105468750e+02,4.71010894775390625e+02,1.67049896240234375e+02,1.76756607055664063e+02],"tree_param":{"num_feature":"10","num_nodes":"15","size_leaf_vector":"0"}},{"base_weights":[7.34689533710479736e-02,4.84139472246170044e-01,-6.61647915840148926e-01,-2.15623393654823303e-01,6.05104863643646240e-01,-1.33009696006774902e+00,-1.93849816918373108e-01,2.11583450436592102e-01,-8.44956398010253906e-01,1.81504786014556885e-01,8.00321757793426514e-01,-9.70684528350830078e-01,-1.55682766437530518e+00,-7.89017260074615479e-01,1.36376291513442993e-01],"default_left":[true,true,true,true,true,true,true,false,false,false,false,false,false,false,false],"id":5,"leaf_child_counts":[0,0,0,2,2,2,2,0,0,0,0,0,0,0,0],"left_children":[1,3,5,7,9,11,13,-1,-1,-1,-1,-1,-1,-1,-1],"loss_changes":[6.89428649902343750e+02,1.24145172119140625e+02,2.55705718994140625e+02,5.84322662353515625e+01,1.03173065185546875e+02,2.59374389648437500e+01,9.49826202392578125e+01,0.00000000000000000e+00,0.00000000000000000e+00,0.00000000000000000e+00,0.00000000000000000e+00,0.00000000000000000e+00,0.00000000000000000e+00,0.00000000000000000e+00,0.00000000000000000e+00],"parents":[2147483647,0,0,1,1,2,2,3,3,4,4,5,5,6,6],"right_children":[2,4,6,8,10,12,14,-1,-1,-1,-1,-1,-1,-1,-1],"split_conditions":[1.55500000000000000e+02,4.55000000000000000e+01,4.75000000000000000e+01,1.18500000000000000e+02,5.00000000000000000e-01,1.92500000000000000e+02,5.00000000000000000e-01,1.48108415305614471e-02,-5.91469481587409973e-02,1.27053353935480118e-02,5.60225248336791992e-02,-6.79479166865348816e-02,-1.08977936208248138e-01,-5.52312098443508148e-02,9.54634044319391251e-03],"split_indices":[4,1,1,4,0,4,0,0,0,0,0,0,0,0,0],"sum_hessian":[2.28164086914062500e+03,1.46407934570312500e+03,8.17561584472656250e+02,2.15672210693359375e+02,1.24840722656250000e+03,3.35834869384765625e+02,4.81726684570312500e+02,1.28861572265625000e+02,8.68106307983398438e+01,3.94441162109375000e+02,8.53966064453125000e+02,1.31949859619140625e+02,2.03885025024414063e+02,1.71408081054687500e+02,3.10318603515625000e+02],"tree_param":{"num_feature":"10","num_nodes":"15","size_leaf_vector":"0"}},{"base_weights":[7.97949209809303284e-02,-8.00073504447937012e-01,3.36094707250595093e-01,8.48150551319122314e-02,-9.90466058254241943e-01,-1.07391908764839172e-01,5.60351490974426270e-01,-1.65277314186096191e+00,4.84221905469894409e-01,-7.82531023025512695e-01,-1.36599040031433105e+00,-7.32090353965759277e-01,8.72614905238151550e-02,7.05519139766693115e-01,1.04685604572296143e-01],"default_left":[true,true,true,true,true,true,true,false,false,false,false,false,false,false,false],"id":6,"leaf_child_counts":[0,0,0,2,2,2,2,0,0,0,0,0,0,0,0],"left_children":[1,3,5,7,9,11,13,-1,-1,-1,-1,-1,-1,-1,-1],"loss_changes":[5.07619049072265625e+02,8.56377868652343750e+01,1.73408065795898438e+02,6.38404731750488281e+01,3.15683898925781250e+01,7.13463973999023438e+01,7.65105285644531250e+01,0.00000000000000000e+00,0.00000000000000000e+00,0.00000000000000000e+00,0.00000000000000000e+00,0.00000000000000000e+00,0.00000000000000000e+00,0.00000000000000000e+00,0.00000000000000000e+00],"parents":[2147483647,0,0,1,1,2,2,3,3,4,4,5,5,6,6],"right_children":[2,4,6,8,10,12,14,-1,-1,-1,-1,-1,-1,-1,-1],"split_conditions":[4.55000000000000000e+01,3.84999990463256836e+00,5.00000000000000000e-01,5.00000000000000000e-01,5.00000000000000000e-01,5.25000000000000000e+01,5.00000000000000000e-01,-1.15694120526313782e-01,3.38955335319042206e-02,-5.47771714627742767e-02,-9.56193283200263977e-02,-5.12463264167308807e-02,6.10830448567867279e-03,4.93863411247730255e-02,7.32799246907234192e-03],"split_indices":[1,5,0,0,2,1,2,0,0,0,0,0,0,0,0],"sum_hessian":[2.24878930664062500e+03,5.06809143066406250e+02,1.74198010253906250e+03,8.98353652954101563e+01,4.16973754882812500e+02,5.85206481933593750e+02,1.15677368164062500e+03,1.62038249969482422e+01,7.36315383911132813e+01,2.70356201171875000e+02,1.46617568969726563e+02,1.38371566772460938e+02,4.46834899902343750e+02,8.76869262695312500e+02,2.79904418945312500e+02],"tree_param":{"num_feature":"10","num_nodes":"15","size_leaf_vector":"0"}},{"base_weights":[5.43774329125881195e-02,-6.03774785995483398e-01,4.29624795913696289e-01,-1.22766578197479248e+00,-2.15655475854873657e-01,5.75123786926269531e-01,-2.23955959081649780e-02,-1.04912877082824707e+00,-1.51831984519958496e+00,-7.30274200439453125e-01,8.26495587825775146e-02,-2.81183779239654541e-01,6.38327777385711670e-01,-9.94170725345611572e-01,2.03943490982055664e-01],"default_left":[true,true,true,true,true,true,true,false,false,false,false,false,false,false,false],"id":7,"leaf_child_counts":[0,0,0,2,2,2,2,0,0,0,0,0,0,0,0],"left_children":[1,3,5,7,9,11,13,-1,-1,-1,-1,-1,-1,-1,-1],"loss_changes":[5.59070373535156250e+02,1.98786071777343750e+02,9.48270263671875000e+01,1.47557373046875000e+01,7.80430679321289063e+01,5.92063903808593750e+01,7.76271057128906250e+01,0.00000000000000000e+00,0.00000000000000000e+00,0.00000000000000000e+00,0.00000000000000000e+00,0.00000000000000000e+00,0.00000000000000000e+00,0.00000000000000000e+00,0.00000000000000000e+00],"parents":[2147483647,0,0,1,1,2,2,3,3,4,4,5,5,6,6],"right_children":[2,4,6,8,10,12,14,-1,-1,-1,-1,-1,-1,-1,-1],"split_conditions":[5.00000000000000000e-01,4.65000000000000000e+01,5.00000000000000000e-01,5.00000000000000000e-01,5.00000000000000000e-01,4.15000000000000000e+01,4.75000000000000000e+01,-7.34390169382095337e-02,-1.06282390654087067e-01,-5.11191934347152710e-02,5.78546896576881409e-03,-1.96828637272119522e-02,4.46829460561275482e-02,-6.95919543504714966e-02,1.42760444432497025e-02],"split_indices":[3,1,2,2,0,1,1,0,0,0,0,0,0,0,0],"sum_hessian":[2.26166870117187500e+03,8.21034423828125000e+02,1.44063427734375000e+03,3.14047943115234375e+02,5.06986480712890625e+02,1.08962646484375000e+03,3.51007781982421875e+02,1.97401626586914063e+02,1.16646331787109375e+02,1.85508972167968750e+02,3.21477508544921875e+02,7.46600189208984375e+01,1.01496643066406250e+03,6.56689834594726563e+01,2.85338775634765625e+02],"tree_param":{"num_feature":"10","num_nodes":"15","size_leaf_vector":"0"}},{"base_weights":[7.66931101679801941e-02,-6.16330087184906006e-01,4.53682392835617065e-01,-2.50045806169509888e-02,-9.67761456966400146e-01,-2.45006352663040161e-01,5.45496940612792969e-01,-4.25599336624145508e-01,2.68879771232604980e-01,-1.42759501934051514e+00,-5.46949326992034912e-01,6.48802280426025391e-01,-5.56179106235504150e-01,3.53104203939437866e-01,8.15218031406402588e-01],"default_left":[true,true,true,true,true,true,true,false,false,false,false,false,false,false,false],"id":8,"leaf_child_counts":[0,0,0,2,2,2,2,0,0,0,0,0,0,0,0],"left_children":[1,3,5,7,9,11,13,-1,-1,-1,-1,-1,-1,-1,-1],"loss_changes":[5.85479064941406250e+02,1.64060333251953125e+02,9.32345275878906250e+01,3.48868637084960938e+01,9.50473022460937500e+01,4.74354591369628906e+01,6.62926330566406250e+01,0.00000000000000000e+00,0.00000000000000000e+00,0.00000000000000000e+00,0.00000000000000000e+00,0.00000000000000000e+00,0.00000000000000000e+00,0.00000000000000000e+00,0.00000000000000000e+00],"parents":[2147483647,0,0,1,1,2,2,3,3,4,4,5,5,6,6],"right_children":[2,4,6,8,10,12,14,-1,-1,-1,-1,-1,-1,-1,-1],"split_conditions":[5.00000000000000000e-01,1.49500000000000000e+02,4.45000000000000000e+01,5.15000000000000000e+01,4.75000000000000000e+01,3.75000000000000000e+00,3.95000000000000000e+01,-2.97919530421495438e-02,1.88215840607881546e-02,-9.99316498637199402e-02,-3.82864512503147125e-02,4.54161614179611206e-02,-3.89325357973575592e-02,2.47172936797142029e-02,5.70652633905410767e-02],"split_indices":[3,4,1,1,1,5,7,0,0,0,0,0,0,0,0],"sum_hessian":[2.23889233398437500e+03,7.88588012695312500e+02,1.45030419921875000e+03,2.94361114501953125e+02,4.94226898193359375e+02,1.68254638671875000e+02,1.28204956054687500e+03,1.24375831604003906e+02,1.69985305786132813e+02,2.35020614624023438e+02,2.59206298828125000e+02,4.31696586608886719e+01,1.25084983825683594e+02,7.49639160156250000e+02,5.32410461425781250e+02],"tree_param":{"num_feature":"10","num_nodes":"15","size_leaf_vector":"0"}},{"base_weights":[5.32010942697525024e-02,3.82188946008682251e-01,-5.20308136940002441e-01,6.14355683326721191e-01,1.31687253713607788e-01,-1.32857799530029297e+00,-2.82513707876205444e-01,6.38733088970184326e-01,-1.12427496910095215e+00,-1.12623982131481171e-01,4.52173024415969849e-01,-8.61613512039184570e-01,-1.46994876861572266e+00,-6.09826683998107910e-01,2.30171624571084976e-02],"default_left":[true,true,true,true,true,true,true,false,false,false,false,false,false,false,false],"id":9,"leaf_child_counts":[0,0,0,2,2,2,2,0,0,0,0,0,0,0,0],"left_children":[1,3,5,7,9,11,13,-1,-1,-1,-1,-1,-1,-1,-1],"loss_changes":[4.14791320800781250e+02,8.11620483398437500e+01,1.53660842895507813e+02,3.14343261718750000e+01,5.27618026733398438e+01,1.07424926757812500e+01,6.20681991577148438e+01,0.00000000000000000e+00,0.00000000000000000e+00,0.00000000000000000e+00,0.00000000000000000e+00,0.00000000000000000e+00,0.00000000000000000e+00,0.00000000000000000e+00,0.00000000000000000e+00],"parents":[2147483647,0,0,1,1,2,2,3,3,4,4,5,5,6,6],"right_children":[2,4,6,8,10,12,14,-1,-1,-1,-1,-1,-1,-1,-1],"split_conditions":[1.55500000000000000e+02,4.05000019073486328e+00,4.05000000000000000e+01,9.95000000000000000e+01,3.95000000000000000e+01,1.80500000000000000e+02,3.05000000000000000e+01,4.47113178670406342e-02,-7.86992460489273071e-02,-7.88367912173271179e-03,3.16521115601062775e-02,-6.03129453957080841e-02,-1.02896414697170258e-01,-4.26878668367862701e-02,1.61120132543146610e-03],"split_indices":[4,5,1,7,7,4,7,0,0,0,0,0,0,0,0],"sum_hessian":[2.19635961914062500e+03,1.39593115234375000e+03,8.00428405761718750e+02,7.23725097656250000e+02,6.72206054687500000e+02,1.80912979125976563e+02,6.19515441894531250e+02,7.14341918945312500e+02,9.38318157196044922e+00,3.81801483154296875e+02,2.90404571533203125e+02,4.36910247802734375e+01,1.37221954345703125e+02,2.98615203857421875e+02,3.20900238037109375e+02],"tree_param":{"num_feature":"10","num_nodes":"15","size_leaf_vector":"0"}},{"base_weights":[6.72885850071907043e-02,3.88948082923889160e-01,-5.18127501010894775e-01,5.32096207141876221e-01,-9.86346378922462463e-02,-8.60770583152770996e-01,-3.47318015992641449e-02,7.59594500064849854e-01,3.41744184494018555e-01,-7.97260224819183350e-01,1.13835103809833527e-01,-5.67724764347076416e-01,-1.12482237815856934e+00,3.98930251598358154e-01,-5.02832293510437012e-01],"default_left":[true,true,true,true,true,true,true,false,false,false,false,false,false,false,false],"id":10,"leaf_child_counts":[0,0,0,2,2,2,2,0,0,0,0,0,0,0,0],"left_children":[1,3,5,7,9,11,13,-1,-1,-1,-1,-1,-1,-1,-1],"loss_changes":[4.13820343017578125e+02,9.90374603271484375e+01,1.29055175781250000e+02,4.72233276367187500e+01,4.79929428100585938e+01,3.46486816406250000e+01,6.60362243652343750e+01,0.00000000000000000e+00,0.00000000000000000e+00,0.00000000000000000e+00,0.00000000000000000e+00,0.00000000000000000e+00,0.00000000000000000e+00,0.00000000000000000e+00,0.00000000000000000e+00],"parents":[2147483647,0,0,1,1,2,2,3,3,4,4,5,5,6,6],"right_children":[2,4,6,8,10,12,14,-1,-1,-1,-1,-1,-1,-1,-1],"split_conditions":[1.55500000000000000e+02,5.00000000000000000e-01,5.00000000000000000e-01,3.95000004768371582e+00,5.00000000000000000e-01,1.98500000000000000e+02,4.25000000000000000e+00,5.31716160476207733e-02,2.39220932126045227e-02,-5.58082163333892822e-02,7.96845741569995880e-03,-3.97407338023185730e-02,-7.87375643849372864e-02,2.79251169413328171e-02,-3.51982600986957550e-02],"split_indices":[4,2,3,5,3,4,5,0,0,0,0,0,0,0,0],"sum_hessian":[2.19554077148437500e+03,1.41719323730468750e+03,7.78347656250000000e+02,1.09548217773437500e+03,3.21710998535156250e+02,4.55030090332031250e+02,3.23317535400390625e+02,4.97685485839843750e+02,5.97796752929687500e+02,7.43819656372070313e+01,2.47329025268554688e+02,2.17167160034179688e+02,2.37862945556640625e+02,1.67909240722656250e+02,1.55408294677734375e+02],"tree_param":{"num_feature":"10","num_nodes":"15","size_leaf_vector":"0"}},{"base_weights":[4.75775785744190216e-02,3.74934375286102295e-01,-4.84009325504302979e-01,-3.43393571674823761e-02,4.94547009468078613e-01,-9.94278728961944580e-01,-1.64617642760276794e-01,-2.81390517950057983e-01,6.48297309875488281e-01,-9.36876684427261353e-02,5.80480694770812988e-01,-1.27388823032379150e+00,-3.44561219215393066e-01,-1.17554388940334320e-01,-1.27792918682098389e+00],"default_left":[true,true,true,true,true,true,true,false,false,false,false,false,false,false,false],"id":11,"leaf_child_counts":[0,0,0,2,2,2,2,0,0,0,0,0,0,0,0],"left_children":[1,3,5,7,9,11,13,-1,-1,-1,-1,-1,-1,-1,-1],"loss_changes":[3.77996337890625000e+02,6.58230743408203125e+01,1.34761276245117188e+02,5.16104736328125000e+01,5.26400756835937500e+01,5.74237060546875000e+01,2.65913906097412109e+01,0.00000000000000000e+00,0.00000000000000000e+00,0.00000000000000000e+00,0.00000000000000000e+00,0.00000000000000000e+00,0.00000000000000000e+00,0.00000000000000000e+00,0.00000000000000000e+00],"parents":[2147483647,0,0,1,1,2,2,3,3,4,4,5,5,6,6],"right_children":[2,4,6,8,10,12,14,-1,-1,-1,-1,-1,-1,-1,-1],"split_conditions":[1.50500000000000000e+02,5.00000000000000000e-01,4.75000000000000000e+01,1.25000000000000000e+00,4.55000000000000000e+01,5.00000000000000000e-01,7.05000000000000000e+01,-1.96973364800214767e-02,4.53808121383190155e-02,-6.55813701450824738e-03,4.06336486339569092e-02,-8.91721770167350769e-02,-2.41192858666181564e-02,-8.22880771011114120e-03,-8.94550457596778870e-02],"split_indices":[4,3,1,6,1,3,7,0,0,0,0,0,0,0,0],"sum_hessian":[2.17011791992187500e+03,1.34323474121093750e+03,8.26883361816406250e+02,3.03946411132812500e+02,1.03928833007812500e+03,3.17508911132812500e+02,5.09374450683593750e+02,2.23608627319335938e+02,8.03377914428710938e+01,1.32462615966796875e+02,9.06825683593750000e+02,2.21307357788085938e+02,9.62015380859375000e+01,4.89775665283203125e+02,1.95988006591796875e+01],"tree_param":{"num_feature":"10","num_nodes":"15","size_leaf_vector":"0"}},{"base_weights":[1.66977196931838989e-02,2.55771994590759277e-01,-5.12150108814239502e-01,-1.46791353821754456e-01,4.33300554752349854e-01,-1.18912422657012939e+00,-3.08566182851791382e-01,2.20882073044776917e-01,-7.12974667549133301e-01,-7.35698044300079346e-02,5.64262568950653076e-01,-1.25022780895233154e+00,9.21345427632331848e-02,-8.05536329746246338e-01,-1.39163297717459500e-04],"default_left":[true,true,true,true,true,true,true,false,false,false,false,false,false,false,false],"id":12,"leaf_child_counts":[0,0,0,2,2,2,2,0,0,0,0,0,0,0,0],"left_children":[1,3,5,7,9,11,13,-1,-1,-1,-1,-1,-1,-1,-1],"loss_changes":[2.65245483398437500e+02,1.03312751770019531e+02,8.96497039794921875e+01,9.23525772094726563e+01,6.66107025146484375e+01,1.19098968505859375e+01,7.71737670898437500e+01,0.00000000000000000e+00,0.00000000000000000e+00,0.00000000000000000e+00,0.00000000000000000e+00,0.00000000000000000e+00,0.00000000000000000e+00,0.00000000000000000e+00,0.00000000000000000e+00],"parents":[2147483647,0,0,1,1,2,2,3,3,4,4,5,5,6,6],"right_children":[2,4,6,8,10,12,14,-1,-1,-1,-1,-1,-1,-1,-1],"split_conditions":[1.63500000000000000e+02,5.00000000000000000e-01,4.05000000000000000e+01,1.19500000000000000e+02,4.65000000000000000e+01,1.49500000000000000e+03,2.75000000000000000e+01,1.54617447406053543e-02,-4.99082282185554504e-02,-5.14988647773861885e-03,3.94983813166618347e-02,-8.75159502029418945e-02,6.44941814243793488e-03,-5.63875436782836914e-02,-9.74143131315940991e-06],"split_indices":[4,0,1,4,1,8,7,0,0,0,0,0,0,0,0],"sum_hessian":[2.09586230468750000e+03,1.44372094726562500e+03,6.52141235351562500e+02,4.41882476806640625e+02,1.00183856201171875e+03,1.49655014038085938e+02,5.02486236572265625e+02,2.68276458740234375e+02,1.73606002807617188e+02,2.05791015625000000e+02,7.96047546386718750e+02,1.42865921020507813e+02,6.78909158706665039e+00,1.91809982299804688e+02,3.10676269531250000e+02],"tree_param":{"num_feature":"10","num_nodes":"15","size_leaf_vector":"0"}},{"base_weights":[4.12744805216789246e-02,-4.42226171493530273e-01,3.11093360185623169e-01,-6.92458093166351318e-01,2.66334623098373413e-01,3.64688515663146973e-01,-6.40190780162811279e-01,1.33363455533981323e-02,-8.65697503089904785e-01,-6.53051887638866901e-04,1.10849010944366455e+00,6.22407495975494385e-01,2.26009219884872437e-01,-1.31340408325195313e+00,-2.68654488027095795e-02],"default_left":[true,true,true,true,true,true,true,false,false,false,false,false,false,false,false],"id":13,"leaf_child_counts":[0,0,0,2,2,2,2,0,0,0,0,0,0,0,0],"left_children":[1,3,5,7,9,11,13,-1,-1,-1,-1,-1,-1,-1,-1],"loss_changes":[2.74684844970703125e+02,1.33905090332031250e+02,6.91288604736328125e+01,6.81939392089843750e+01,4.44199295043945313e+01,4.56023406982421875e+01,2.98729686737060547e+01,0.00000000000000000e+00,0.00000000000000000e+00,0.00000000000000000e+00,0.00000000000000000e+00,0.00000000000000000e+00,0.00000000000000000e+00,0.00000000000000000e+00,0.00000000000000000e+00],"parents":[2147483647,0,0,1,1,2,2,3,3,4,4,5,5,6,6],"right_children":[2,4,6,8,10,12,14,-1,-1,-1,-1,-1,-1,-1,-1],"split_conditions":[5.00000000000000000e-01,5.75000000000000000e+01,2.04500000000000000e+02,1.20500000000000000e+02,1.25000000000000000e+00,3.84999990463256836e+00,3.55000000000000000e+01,9.33544186409562826e-04,-6.05988241732120514e-02,-4.57136338809505105e-05,7.75943100452423096e-02,4.35685254633426666e-02,1.58206447958946228e-02,-9.19382870197296143e-02,-1.88058137428015471e-03],"split_indices":[3,1,4,4,6,5,8,0,0,0,0,0,0,0,0],"sum_hessian":[2.10349414062500000e+03,7.53186401367187500e+02,1.35030773925781250e+03,5.56631713867187500e+02,1.96554672241210938e+02,1.27887292480468750e+03,7.14348297119140625e+01,1.09882507324218750e+02,4.46749237060546875e+02,1.49999649047851563e+02,4.65550117492675781e+01,4.46191345214843750e+02,8.32681640625000000e+02,3.35106201171875000e+01,3.79242057800292969e+01],"tree_param":{"num_feature":"10","num_nodes":"15","size_leaf_vector":"0"}},{"base_weights":[3.26919257640838623e-02,-7.77751684188842773e-01,1.76371067762374878e-01,-4.47100937366485596e-01,-1.19591343402862549e+00,3.94485831260681152e-01,-1.66554272174835205e-01,-7.60426461696624756e-01,1.07030197978019714e-01,-1.26191902160644531e+00,-3.90478819608688354e-01,1.97422113269567490e-02,5.74016094207763672e-01,-5.01604676246643066e-01,4.96666505932807922e-02],"default_left":[true,true,true,true,true,true,true,false,false,false,false,false,false,false,false],"id":14,"leaf_child_counts":[0,0,0,2,2,2,2,0,0,0,0,0,0,0,0],"left_children":[1,3,5,7,9,11,13,-1,-1,-1,-1,-1,-1,-1,-1],"loss_changes":[2.43998901367187500e+02,4.30952758789062500e+01,1.33181411743164063e+02,3.09536857604980469e+01,6.88313293457031250e+00,7.31936645507812500e+01,5.01996154785156250e+01,0.00000000000000000e+00,0.00000000000000000e+00,0.00000000000000000e+00,0.00000000000000000e+00,0.00000000000000000e+00,0.00000000000000000e+00,0.00000000000000000e+00,0.00000000000000000e+00],"parents":[2147483647,0,0,1,1,2,2,3,3,4,4,5,5,6,6],"right_children":[2,4,6,8,10,12,14,-1,-1,-1,-1,-1,-1,-1,-1],"split_conditions":[4.25000000000000000e+01,1.80500000000000000e+02,1.44500000000000000e+02,4.55000000000000000e+01,8.35000000000000000e+01,5.00000000000000000e-01,5.25000000000000000e+01,-5.32298535108566284e-02,7.49211385846138000e-03,-8.83343294262886047e-02,-2.73335166275501251e-02,1.38195476029068232e-03,4.01811264455318451e-02,-3.51123288273811340e-02,3.47666558809578419e-03],"split_indices":[1,4,4,7,7,0,1,0,0,0,0,0,0,0,0],"sum_hessian":[2.09324316406250000e+03,3.14552124023437500e+02,1.77869116210937500e+03,1.76811843872070313e+02,1.37740264892578125e+02,1.08709997558593750e+03,6.91591125488281250e+02,1.12709556579589844e+02,6.41022949218750000e+01,1.26783554077148438e+02,1.09567050933837891e+01,3.52473083496093750e+02,7.34626953125000000e+02,2.70739776611328125e+02,4.20851348876953125e+02],"tree_param":{"num_feature":"10","num_nodes":"15","size_leaf_vector":"0"}},{"base_weights":[3.30676026642322540e-02,-4.22561109066009521e-01,2.80753344297409058e-01,-8.72783809900283813e-02,-7.29505300521850586e-01,4.13062334060668945e-01,-1.27046525478363037e-01,-1.39807527884840965e-02,-1.62196350097656250e+00,-4.47954803705215454e-01,-1.06435739994049072e+00,2.34774544835090637e-01,6.71763956546783447e-01,-6.94729924201965332e-01,1.22524783015251160e-01],"default_left":[true,true,true,true,true,true,true,false,false,false,false,false,false,false,false],"id":15,"leaf_child_counts":[0,0,0,2,2,2,2,0,0,0,0,0,0,0,0],"left_children":[1,3,5,7,9,11,13,-1,-1,-1,-1,-1,-1,-1,-1],"loss_changes":[2.36480194091796875e+02,7.58852691650390625e+01,7.32935943603515625e+01,3.97814064025878906e+01,3.58335266113281250e+01,4.71252746582031250e+01,4.73050308227539063e+01,0.00000000000000000e+00,0.00000000000000000e+00,0.00000000000000000e+00,0.00000000000000000e+00,0.00000000000000000e+00,0.00000000000000000e+00,0.00000000000000000e+00,0.00000000000000000e+00],"parents":[2147483647,0,0,1,1,2,2,3,3,4,4,5,5,6,6],"right_children":[2,4,6,8,10,12,14,-1,-1,-1,-1,-1,-1,-1,-1],"split_conditions":[5.00000000000000000e-01,1.62500000000000000e+02,5.00000000000000000e-01,4.64999961853027344e+00,5.00000000000000000e-01,3.95000000000000000e+01,5.00000000000000000e-01,-9.78652737103402615e-04,-1.13537445664405823e-01,-3.13568376004695892e-02,-7.45050162076950073e-02,1.64342187345027924e-02,4.70234788954257965e-02,-4.86310943961143494e-02,8.57673492282629013e-03],"split_indices":[3,4,2,5,9,7,0,0,0,0,0,0,0,0,0],"sum_hessian":[2.09342456054687500e+03,7.36991149902343750e+02,1.35643347167968750e+03,3.52849365234375000e+02,3.84141815185546875e+02,1.02414196777343750e+03,3.32291564941406250e+02,3.37728332519531250e+02,1.51210298538208008e+01,2.09949630737304688e+02,1.74192169189453125e+02,6.07430419921875000e+02,4.16711517333984375e+02,1.00929710388183594e+02,2.31361846923828125e+02],"tree_param":{"num_feature":"10","num_nodes":"15","size_leaf_vector":"0"}},{"base_weights":[1.84922814369201660e-02,-3.96897256374359131e-01,2.61493772268295288e-01,-1.42828434705734253e-01,-1.08567774295806885e+00,-1.36525481939315796e-01,4.84188616275787354e-01,-5.81299185752868652e-01,1.75948366522789001e-01,-3.35362434387207031e-01,-1.20724511146545410e+00,4.07565385103225708e-02,-1.01421058177947998e+00,5.49672603607177734e-01,-1.44296422600746155e-01],"default_left":[true,true,true,true,true,true,true,false,false,false,false,false,false,false,false],"id":16,"leaf_child_counts":[0,0,0,2,2,2,2,0,0,0,0,0,0,0,0],"left_children":[1,3,5,7,9,11,13,-1,-1,-1,-1,-1,-1,-1,-1],"loss_changes":[2.07271408081054688e+02,1.32475097656250000e+02,1.14893470764160156e+02,7.76516418457031250e+01,1.82099151611328125e+01,7.24818267822265625e+01,3.42763671875000000e+01,0.00000000000000000e+00,0.00000000000000000e+00,0.00000000000000000e+00,0.00000000000000000e+00,0.00000000000000000e+00,0.00000000000000000e+00,0.00000000000000000e+00,0.00000000000000000e+00],"parents":[2147483647,0,0,1,1,2,2,3,3,4,4,5,5,6,6],"right_children":[2,4,6,8,10,12,14,-1,-1,-1,-1,-1,-1,-1,-1],"split_conditions":[5.05000000000000000e+01,5.00000000000000000e-01,5.00000000000000000e-01,5.00000000000000000e-01,3.75000000000000000e+00,4.35000038146972656e+00,1.97500000000000000e+02,-4.06909435987472534e-02,1.23163852840662003e-02,-2.34753713011741638e-02,-8.45071598887443542e-02,2.85295769572257996e-03,-7.09947422146797180e-02,3.84770818054676056e-02,-1.01007493212819099e-02],"split_indices":[1,2,0,3,5,5,4,0,0,0,0,0,0,0,0],"sum_hessian":[2.05137817382812500e+03,7.56896850585937500e+02,1.29448144531250000e+03,5.53818481445312500e+02,2.03078338623046875e+02,4.64562500000000000e+02,8.29918884277343750e+02,2.32793060302734375e+02,3.21025421142578125e+02,2.88394756317138672e+01,1.74238876342773438e+02,3.87288391113281250e+02,7.72741165161132813e+01,7.51720031738281250e+02,7.81988601684570313e+01],"tree_param":{"num_feature":"10","num_nodes":"15","size_leaf_vector":"0"}},{"base_weights":[9.60148312151432037e-03,-3.97416412830352783e-01,2.37256869673728943e-01,-8.08998882770538330e-01,-1.48905828595161438e-01,-1.26984581351280212e-01,3.95022958517074585e-01,4.12581533193588257e-01,-1.07365703582763672e+00,2.62353736907243729e-02,-6.42664611339569092e-01,1.15346208214759827e-01,-9.63219821453094482e-01,-5.12537479400634766e-01,4.77997511625289917e-01],"default_left":[true,true,true,true,true,true,true,false,false,false,false,false,false,false,false],"id":17,"leaf_child_counts":[0,0,0,2,2,2,2,0,0,0,0,0,0,0,0],"left_children":[1,3,5,7,9,11,13,-1,-1,-1,-1,-1,-1,-1,-1],"loss_changes":[1.89464462280273438e+02,7.48984909057617188e+01,7.54020156860351563e+01,8.96422729492187500e+01,3.96708106994628906e+01,8.05735626220703125e+01,6.91640625000000000e+01,0.00000000000000000e+00,0.00000000000000000e+00,0.00000000000000000e+00,0.00000000000000000e+00,0.00000000000000000e+00,0.00000000000000000e+00,0.00000000000000000e+00,0.00000000000000000e+00],"parents":[2147483647,0,0,1,1,2,2,3,3,4,4,5,5,6,6],"right_children":[2,4,6,8,10,12,14,-1,-1,-1,-1,-1,-1,-1,-1],"split_conditions":[5.00000000000000000e-01,4.75000000000000000e+01,5.00000000000000000e-01,1.18500000000000000e+02,4.35000038146972656e+00,5.00000000000000000e-01,4.15000000000000000e+01,2.88807079195976257e-02,-7.51559957861900330e-02,1.83647614903748035e-03,-4.49865236878395081e-02,8.07423423975706100e-03,-6.74253851175308228e-02,-3.58776226639747620e-02,3.34598273038864136e-02],"split_indices":[3,1,0,4,5,2,1,0,0,0,0,0,0,0,0],"sum_hessian":[2.04271411132812500e+03,7.32447875976562500e+02,1.31026623535156250e+03,2.74901489257812500e+02,4.57546386718750000e+02,3.96060089111328125e+02,9.14206115722656250e+02,4.88528633117675781e+01,2.26048629760742188e+02,3.38443847656250000e+02,1.19102561950683594e+02,3.07742218017578125e+02,8.83178863525390625e+01,7.61470184326171875e+01,8.38059143066406250e+02],"tree_param":{"num_feature":"10","num_nodes":"15","size_leaf_vector":"0"}},{"base_weights":[7.84750934690237045e-03,2.28887587785720825e-01,-4.21749740839004517e-01,-1.82685762643814087e-01,3.35732549428939819e-01,-9.07797038555145264e-01,-2.08998724818229675e-01,1.63338825106620789e-01,-7.12630867958068848e-01,1.38012003153562546e-02,4.22471582889556885e-01,-1.11170005798339844e+00,-1.44382029771804810e-01,-7.17476606369018555e-01,5.79786188900470734e-02],"default_left":[true,true,true,true,true,true,true,false,false,false,false,false,false,false,false],"id":18,"leaf_child_counts":[0,0,0,2,2,2,2,0,0,0,0,0,0,0,0],"left_children":[1,3,5,7,9,11,13,-1,-1,-1,-1,-1,-1,-1,-1],"loss_changes":[1.91117706298828125e+02,5.84978942871093750e+01,7.05160064697265625e+01,5.04572601318359375e+01,2.94637069702148438e+01,3.21976928710937500e+01,6.47800598144531250e+01,0.00000000000000000e+00,0.00000000000000000e+00,0.00000000000000000e+00,0.00000000000000000e+00,0.00000000000000000e+00,0.00000000000000000e+00,0.00000000000000000e+00,0.00000000000000000e+00],"parents":[2147483647,0,0,1,1,2,2,3,3,4,4,5,5,6,6],"right_children":[2,4,6,8,10,12,14,-1,-1,-1,-1,-1,-1,-1,-1],"split_conditions":[1.55500000000000000e+02,4.75000000000000000e+01,4.55000000000000000e+01,1.18500000000000000e+02,5.00000000000000000e-01,4.95000000000000000e+01,2.25000000000000000e+01,1.14337177947163582e-02,-4.98841591179370880e-02,9.66084015090018511e-04,2.95730102807283401e-02,-7.78190046548843384e-02,-1.01067423820495605e-02,-5.02233617007732391e-02,4.05850354582071304e-03],"split_indices":[4,1,1,4,3,7,8,0,0,0,0,0,0,0,0],"sum_hessian":[2.01063415527343750e+03,1.32787280273437500e+03,6.82761352539062500e+02,2.73525604248046875e+02,1.05434716796875000e+03,2.06873886108398438e+02,4.75887451171875000e+02,1.65896331787109375e+02,1.07629264831542969e+02,2.24027999877929688e+02,8.30319213867187500e+02,1.62906433105468750e+02,4.39674415588378906e+01,1.63259811401367188e+02,3.12627624511718750e+02],"tree_param":{"num_feature":"10","num_nodes":"15","size_leaf_vector":"0"}},{"base_weights":[4.93065938353538513e-02,1.60532191395759583e-01,-5.71438312530517578e-01,2.89434969425201416e-01,-2.25057393312454224e-01,-8.84466290473937988e-01,-2.95243144035339355e-01,-5.42347095906734467e-02,3.88683289289474487e-01,-6.13133788108825684e-01,-3.34531590342521667e-02,-6.27561211585998535e-01,-1.21968317031860352e+00,-6.11065961420536041e-02,-1.18926167488098145e+00],"default_left":[true,true,true,true,true,true,true,false,false,false,false,false,false,false,false],"id":19,"leaf_child_counts":[0,0,0,2,2,2,2,0,0,0,0,0,0,0,0],"left_children":[1,3,5,7,9,11,13,-1,-1,-1,-1,-1,-1,-1,-1],"loss_changes":[1.41232192993164063e+02,8.62709197998046875e+01,2.66139907836914063e+01,4.43722915649414063e+01,3.23326187133789063e+01,1.17397613525390625e+01,3.48092346191406250e+01,0.00000000000000000e+00,0.00000000000000000e+00,0.00000000000000000e+00,0.00000000000000000e+00,0.00000000000000000e+00,0.00000000000000000e+00,0.00000000000000000e+00,0.00000000000000000e+00],"parents":[2147483647,0,0,1,1,2,2,3,3,4,4,5,5,6,6],"right_children":[2,4,6,8,10,12,14,-1,-1,-1,-1,-1,-1,-1,-1],"split_conditions":[1.98500000000000000e+02,5.00000000000000000e-01,2.85000000000000000e+01,2.45000000000000000e+01,5.00000000000000000e-01,3.85000000000000000e+01,5.45000000000000000e+01,-3.79642960615456104e-03,2.72078309208154678e-02,-4.29193638265132904e-02,-2.34172120690345764e-03,-4.39292863011360168e-02,-8.53778198361396790e-02,-4.27746167406439781e-03,-8.32483172416687012e-02],"split_indices":[4,2,7,7,0,8,7,0,0,0,0,0,0,0,0],"sum_hessian":[2.04324816894531250e+03,1.73339782714843750e+03,3.09850311279296875e+02,1.29929296875000000e+03,4.34104919433593750e+02,1.44208312988281250e+02,1.65642013549804688e+02,2.91244995117187500e+02,1.00804797363281250e+03,1.42759338378906250e+02,2.91345611572265625e+02,8.32663497924804688e+01,6.09419670104980469e+01,1.32111404418945313e+02,3.35306091308593750e+01],"tree_param":{"num_feature":"10","num_nodes":"15","size_leaf_vector":"0"}},{"base_weights":[6.18978701531887054e-02,-6.39071881771087646e-01,1.71281576156616211e-01,5.11514484882354736e-01,-8.09992849826812744e-01,2.94968605041503906e-01,-1.77771240472793579e-01,7.43467032909393311e-01,-1.44475054740905762e+00,-5.76865673065185547e-01,-1.29126214981079102e+00,-9.30961035192012787e-03,4.21918839216232300e-01,1.36626034975051880e-01,-5.07417261600494385e-01],"default_left":[true,true,true,true,true,true,true,false,false,false,false,false,false,false,false],"id":20,"leaf_child_counts":[0,0,0,2,2,2,2,0,0,0,0,0,0,0,0],"left_children":[1,3,5,7,9,11,13,-1,-1,-1,-1,-1,-1,-1,-1],"loss_changes":[1.56469573974609375e+02,5.45894622802734375e+01,7.62442398071289063e+01,1.75195693969726563e+01,2.62086944580078125e+01,5.03530120849609375e+01,4.79883575439453125e+01,0.00000000000000000e+00,0.00000000000000000e+00,0.00000000000000000e+00,0.00000000000000000e+00,0.00000000000000000e+00,0.00000000000000000e+00,0.00000000000000000e+00,0.00000000000000000e+00],"parents":[2147483647,0,0,1,1,2,2,3,3,4,4,5,5,6,6],"right_children":[2,4,6,8,10,12,14,-1,-1,-1,-1,-1,-1,-1,-1],"split_conditions":[4.25000000000000000e+01,6.85000000000000000e+01,5.00000000000000000e-01,4.14999961853027344e+00,5.00000000000000000e-01,5.00000000000000000e-01,4.14999961853027344e+00,5.20426928997039795e-02,-1.01132541894912720e-01,-4.03805971145629883e-02,-9.03883501887321472e-02,-6.51672715321183205e-04,2.95343194156885147e-02,9.56382229924201965e-03,-3.55192087590694427e-02],"split_indices":[1,4,2,5,2,3,5,0,0,0,0,0,0,0,0],"sum_hessian":[2.03826684570312500e+03,2.74477111816406250e+02,1.76378967285156250e+03,3.52425537109375000e+01,2.39234558105468750e+02,1.30242846679687500e+03,4.61361236572265625e+02,3.20610580444335938e+01,3.18149471282958984e+00,1.62646911621093750e+02,7.65876464843750000e+01,3.83697448730468750e+02,9.18731018066406250e+02,2.36442062377929688e+02,2.24919174194335938e+02],"tree_param":{"num_feature":"10","num_nodes":"15","size_leaf_vector":"0"}},{"base_weights":[1.93390604108572006e-02,2.22172528505325317e-01,-3.77543717622756958e-01,4.14696812629699707e-01,1.11341048032045364e-02,-1.01033747196197510e+00,-2.39219993352890015e-01,-2.74141848087310791e-01,4.70988899469375610e-01,-2.56905525922775269e-01,2.34530299901962280e-01,-6.52811169624328613e-01,-1.21586787700653076e+00,-5.17335057258605957e-01,3.72726172208786011e-02],"default_left":[true,true,true,true,true,true,true,false,false,false,false,false,false,false,false],"id":21,"leaf_child_counts":[0,0,0,2,2,2,2,0,0,0,0,0,0,0,0],"left_children":[1,3,5,7,9,11,13,-1,-1,-1,-1,-1,-1,-1,-1],"loss_changes":[1.60807266235351563e+02,5.37044448852539063e+01,5.88964996337890625e+01,2.69330520629882813e+01,3.78833351135253906e+01,8.08920288085937500e+00,4.27543067932128906e+01,0.00000000000000000e+00,0.00000000000000000e+00,0.00000000000000000e+00,0.00000000000000000e+00,0.00000000000000000e+00,0.00000000000000000e+00,0.00000000000000000e+00,0.00000000000000000e+00],"parents":[2147483647,0,0,1,1,2,2,3,3,4,4,5,5,6,6],"right_children":[2,4,6,8,10,12,14,-1,-1,-1,-1,-1,-1,-1,-1],"split_conditions":[1.55500000000000000e+02,4.05000019073486328e+00,4.05000000000000000e+01,4.35000000000000000e+01,3.45000000000000000e+01,1.92500000000000000e+02,5.00000000000000000e-01,-1.91899295896291733e-02,3.29692214727401733e-02,-1.79833862930536270e-02,1.64171215146780014e-02,-4.56967838108539581e-02,-8.51107537746429443e-02,-3.62134538590908051e-02,2.60908319614827633e-03],"split_indices":[4,5,1,1,7,4,3,0,0,0,0,0,0,0,0],"sum_hessian":[1.99553625488281250e+03,1.32090588378906250e+03,6.74630432128906250e+02,6.90247680664062500e+02,6.30658203125000000e+02,1.19884956359863281e+02,5.54745483398437500e+02,5.18535003662109375e+01,6.38394165039062500e+02,2.86615509033203125e+02,3.44042694091796875e+02,4.52855758666992188e+01,7.45993804931640625e+01,2.76127044677734375e+02,2.78618438720703125e+02],"tree_param":{"num_feature":"10","num_nodes":"15","size_leaf_vector":"0"}},{"base_weights":[-2.22387313842773438e-02,1.24399550259113312e-01,-4.33585464954376221e-01,-1.17741916328668594e-02,4.85191285610198975e-01,-8.23683381080627441e-01,8.09038057923316956e-02,-5.09373843669891357e-01,1.09239034354686737e-01,5.67525327205657959e-01,-9.58859682083129883e-01,-1.05567589402198792e-01,-1.12167942523956299e+00,-2.04833579063415527e+00,1.36833563446998596e-01],"default_left":[true,true,true,true,true,true,true,false,false,false,false,false,false,false,false],"id":22,"leaf_child_counts":[0,0,0,2,2,2,2,0,0,0,0,0,0,0,0],"left_children":[1,3,5,7,9,11,13,-1,-1,-1,-1,-1,-1,-1,-1],"loss_changes":[1.17554443359375000e+02,7.05975952148437500e+01,1.02855995178222656e+02,6.29272232055664063e+01,4.73564834594726563e+01,6.22353363037109375e+01,2.66907253265380859e+01,0.00000000000000000e+00,0.00000000000000000e+00,0.00000000000000000e+00,0.00000000000000000e+00,0.00000000000000000e+00,0.00000000000000000e+00,0.00000000000000000e+00,0.00000000000000000e+00],"parents":[2147483647,0,0,1,1,2,2,3,3,4,4,5,5,6,6],"right_children":[2,4,6,8,10,12,14,-1,-1,-1,-1,-1,-1,-1,-1],"split_conditions":[5.00000000000000000e-01,4.55000000000000000e+01,5.55000000000000000e+01,4.55000000000000000e+01,1.01500000000000000e+02,3.95000004768371582e+00,6.05000000000000000e+01,-3.56561690568923950e-02,7.64673249796032906e-03,3.97267714142799377e-02,-6.71201795339584351e-02,-7.38973123952746391e-03,-7.85175636410713196e-02,-1.43383502960205078e-01,9.57834906876087189e-03],"split_indices":[2,7,1,1,7,5,4,0,0,0,0,0,0,0,0],"sum_hessian":[1.94697924804687500e+03,1.43582800292968750e+03,5.11151245117187500e+02,1.04309838867187500e+03,3.92729583740234375e+02,2.90378479003906250e+02,2.20772766113281250e+02,2.03423416137695313e+02,8.39674987792968750e+02,3.72119781494140625e+02,2.06097984313964844e+01,8.55567398071289063e+01,2.04821731567382813e+02,4.73892927169799805e+00,2.16033843994140625e+02],"tree_param":{"num_feature":"10","num_nodes":"15","size_leaf_vector":"0"}},{"base_weights":[1.62392500787973404e-02,-5.33015310764312744e-01,1.02006562054157257e-01,9.34134542942047119e-01,-6.05053007602691650e-01,-1.89765244722366333e-01,2.53587752580642700e-01,-1.12379860877990723e+00,1.33358359336853027e+00,-6.93998992443084717e-01,6.20033800601959229e-01,-3.49307149648666382e-01,3.30192208290100098e-01,2.94405311346054077e-01,-5.35374760627746582e-01],"default_left":[true,true,true,true,true,true,true,false,false,false,false,false,false,false,false],"id":23,"leaf_child_counts":[0,0,0,2,2,2,2,0,0,0,0,0,0,0,0],"left_children":[1,3,5,7,9,11,13,-1,-1,-1,-1,-1,-1,-1,-1],"loss_changes":[9.23636627197265625e+01,2.85537796020507813e+01,7.50441970825195313e+01,1.20102539062500000e+01,2.80021209716796875e+01,4.82564849853515625e+01,3.61088409423828125e+01,0.00000000000000000e+00,0.00000000000000000e+00,0.00000000000000000e+00,0.00000000000000000e+00,0.00000000000000000e+00,0.00000000000000000e+00,0.00000000000000000e+00,0.00000000000000000e+00],"parents":[2147483647,0,0,1,1,2,2,3,3,4,4,5,5,6,6],"right_children":[2,4,6,8,10,12,14,-1,-1,-1,-1,-1,-1,-1,-1],"split_conditions":[4.25000000000000000e+01,2.84999990463256836e+00,5.00000000000000000e-01,1.54999995231628418e+00,1.49500000000000000e+03,6.35000000000000000e+01,4.64999961853027344e+00,-7.86659047007560730e-02,9.33508500456809998e-02,-4.85799312591552734e-02,4.34023663401603699e-02,-2.44514998048543930e-02,2.31134537607431412e-02,2.06083711236715317e-02,-3.74762341380119324e-02],"split_indices":[1,5,0,6,8,1,5,0,0,0,0,0,0,0,0],"sum_hessian":[1.95852099609375000e+03,2.63817413330078125e+02,1.69470349121093750e+03,1.17871923446655273e+01,2.52030212402343750e+02,5.79328430175781250e+02,1.11537512207031250e+03,1.62125074863433838e+00,1.01659421920776367e+01,2.35374633789062500e+02,1.66555786132812500e+01,4.43557128906250000e+02,1.35771301269531250e+02,1.06110485839843750e+03,5.42702178955078125e+01],"tree_param":{"num_feature":"10","num_nodes":"15","size_leaf_vector":"0"}},{"base_weights":[7.11587071418762207e-02,-2.54461944103240967e-01,2.46125280857086182e-01,-7.09617212414741516e-02,-7.29032337665557861e-01,-2.66710426658391953e-02,4.01758223772048950e-01,-2.80187800526618958e-02,-1.56282901763916016e+00,8.92029464244842529e-01,-8.38112890720367432e-01,1.27560243010520935e-01,-7.67903804779052734e-01,4.39513236284255981e-01,-5.55279016494750977e-01],"default_left":[true,true,true,true,true,true,true,false,false,false,false,false,false,false,false],"id":24,"leaf_child_counts":[0,0,0,2,2,2,2,0,0,0,0,0,0,0,0],"left_children":[1,3,5,7,9,11,13,-1,-1,-1,-1,-1,-1,-1,-1],"loss_changes":[1.14698730468750000e+02,6.12355613708496094e+01,5.56005172729492188e+01,3.25421562194824219e+01,3.54297409057617188e+01,5.45808334350585938e+01,3.03706970214843750e+01,0.00000000000000000e+00,0.00000000000000000e+00,0.00000000000000000e+00,0.00000000000000000e+00,0.00000000000000000e+00,0.00000000000000000e+00,0.00000000000000000e+00,0.00000000000000000e+00],"parents":[2147483647,0,0,1,1,2,2,3,3,4,4,5,5,6,6],"right_children":[2,4,6,8,10,12,14,-1,-1,-1,-1,-1,-1,-1,-1],"split_conditions":[5.05000000000000000e+01,1.82500000000000000e+02,5.00000000000000000e-01,4.75000000000000000e+00,3.54999995231628418e+00,4.35000038146972656e+00,2.30500000000000000e+02,-1.96131458505988121e-03,-1.09398029744625092e-01,6.24420642852783203e-02,-5.86679019033908844e-02,8.92921723425388336e-03,-5.37532679736614227e-02,3.07659264653921127e-02,-3.88695299625396729e-02],"split_indices":[1,4,0,5,5,5,4,0,0,0,0,0,0,0,0],"sum_hessian":[2.01112231445312500e+03,7.02774047851562500e+02,1.30834826660156250e+03,5.07637451171875000e+02,1.95136596679687500e+02,4.75576873779296875e+02,8.32771423339843750e+02,4.94424377441406250e+02,1.32130727767944336e+01,1.18502759933471680e+01,1.83286315917968750e+02,3.94350646972656250e+02,8.12262191772460938e+01,8.01685791015625000e+02,3.10856761932373047e+01],"tree_param":{"num_feature":"10","num_nodes":"15","size_leaf_vector":"0"}},{"base_weights":[-7.78638431802392006e-03,-5.48688590526580811e-01,9.92833077907562256e-02,-8.76568734645843506e-01,6.78802207112312317e-02,-2.21470654010772705e-01,2.61287897825241089e-01,5.59921741485595703e-01,-1.04328393936157227e+00,6.37215495109558105e-01,-5.00875711441040039e-01,8.61162617802619934e-02,-5.77791213989257813e-01,3.53259623050689697e-01,2.85949278622865677e-03],"default_left":[true,true,true,true,true,true,true,false,false,false,false,false,false,false,false],"id":25,"leaf_child_counts":[0,0,0,2,2,2,2,0,0,0,0,0,0,0,0],"left_children":[1,3,5,7,9,11,13,-1,-1,-1,-1,-1,-1,-1,-1],"loss_changes":[1.12848434448242188e+02,6.51495132446289063e+01,8.45835266113281250e+01,5.09396820068359375e+01,3.68146858215332031e+01,5.99358100891113281e+01,2.56976394653320313e+01,0.00000000000000000e+00,0.00000000000000000e+00,0.00000000000000000e+00,0.00000000000000000e+00,0.00000000000000000e+00,0.00000000000000000e+00,0.00000000000000000e+00,0.00000000000000000e+00],"parents":[2147483647,0,0,1,1,2,2,3,3,4,4,5,5,6,6],"right_children":[2,4,6,8,10,12,14,-1,-1,-1,-1,-1,-1,-1,-1],"split_conditions":[4.45000000000000000e+01,4.55000000000000000e+01,5.00000000000000000e-01,5.95000000000000000e+01,8.35000000000000000e+01,1.32500000000000000e+02,5.00000000000000000e-01,3.91945205628871918e-02,-7.30298757553100586e-02,4.46050837635993958e-02,-3.50612998008728027e-02,6.02813856676220894e-03,-4.04453836381435394e-02,2.47281733900308609e-02,2.00164489797316492e-04],"split_indices":[1,7,0,4,8,4,2,0,0,0,0,0,0,0,0],"sum_hessian":[1.94660351562500000e+03,3.20971679687500000e+02,1.62563183593750000e+03,2.09266082763671875e+02,1.11705612182617188e+02,5.45407958984375000e+02,1.08022387695312500e+03,2.15160350799560547e+01,1.87750045776367188e+02,5.57642211914062500e+01,5.59413871765136719e+01,2.93128601074218750e+02,2.52279357910156250e+02,7.96420043945312500e+02,2.83803863525390625e+02],"tree_param":{"num_feature":"10","num_nodes":"15","size_leaf_vector":"0"}},{"base_weights":[-5.75572298839688301e-03,1.22295938432216644e-01,-3.66767734289169312e-01,-5.26233732700347900e-01,1.74724027514457703e-01,-5.09617589414119720e-02,-6.91238284111022949e-01,9.83478724956512451e-01,-7.81949520111083984e-01,-1.08562186360359192e-01,3.08267652988433838e-01,-1.37939229607582092e-01,1.45838510990142822e+00,-9.40395414829254150e-01,-4.00220423936843872e-01],"default_left":[true,true,true,true,true,true,true,false,false,false,false,false,false,false,false],"id":26,"leaf_child_counts":[0,0,0,2,2,2,2,0,0,0,0,0,0,0,0],"left_children":[1,3,5,7,9,11,13,-1,-1,-1,-1,-1,-1,-1,-1],"loss_changes":[8.93116836547851563e+01,4.85830154418945313e+01,5.17986068725585938e+01,4.20457763671875000e+01,4.99795532226562500e+01,3.39957046508789063e+01,1.77089157104492188e+01,0.00000000000000000e+00,0.00000000000000000e+00,0.00000000000000000e+00,0.00000000000000000e+00,0.00000000000000000e+00,0.00000000000000000e+00,0.00000000000000000e+00,0.00000000000000000e+00],"parents":[2147483647,0,0,1,1,2,2,3,3,4,4,5,5,6,6],"right_children":[2,4,6,8,10,12,14,-1,-1,-1,-1,-1,-1,-1,-1],"split_conditions":[5.00000000000000000e-01,3.95000000000000000e+01,4.14999961853027344e+00,6.45000000000000000e+01,5.00000000000000000e-01,1.70600000000000000e+03,5.25000000000000000e+01,6.88435137271881104e-02,-5.47364652156829834e-02,-7.59935285896062851e-03,2.15787366032600403e-02,-9.65574570000171661e-03,1.02086961269378662e-01,-6.58276826143264771e-02,-2.80154291540384293e-02],"split_indices":[2,1,5,4,0,8,1,0,0,0,0,0,0,0,0],"sum_hessian":[1.93000427246093750e+03,1.42515881347656250e+03,5.04845397949218750e+02,1.05918708801269531e+02,1.31924011230468750e+03,2.56424987792968750e+02,2.48420410156250000e+02,1.49297037124633789e+01,9.09890060424804688e+01,4.22717041015625000e+02,8.96523071289062500e+02,2.43312484741210938e+02,1.31124906539916992e+01,1.32633682250976563e+02,1.15786727905273438e+02],"tree_param":{"num_feature":"10","num_nodes":"15","size_leaf_vector":"0"}},{"base_weights":[3.72155569493770599e-02,3.33066225051879883e-01,-8.00325497984886169e-02,3.58900904655456543e-01,-1.28959393501281738e+00,-2.64006614685058594e-01,2.17232450842857361e-01,3.73768210411071777e-01,-1.69773674011230469e+00,6.97670638561248779e-01,-2.08241891860961914e+00,-5.16908943653106689e-01,-4.84153181314468384e-02,2.83636301755905151e-01,-1.28261709213256836e+00],"default_left":[true,true,true,true,true,true,true,false,false,false,false,false,false,false,false],"id":27,"leaf_child_counts":[0,0,0,2,2,2,2,0,0,0,0,0,0,0,0],"left_children":[1,3,5,7,9,11,13,-1,-1,-1,-1,-1,-1,-1,-1],"loss_changes":[6.72910995483398438e+01,2.35432090759277344e+01,7.60511627197265625e+01,1.72292098999023438e+01,1.53902826309204102e+01,4.67994804382324219e+01,5.33255920410156250e+01,0.00000000000000000e+00,0.00000000000000000e+00,0.00000000000000000e+00,0.00000000000000000e+00,0.00000000000000000e+00,0.00000000000000000e+00,0.00000000000000000e+00,0.00000000000000000e+00],"parents":[2147483647,0,0,1,1,2,2,3,3,4,4,5,5,6,6],"right_children":[2,4,6,8,10,12,14,-1,-1,-1,-1,-1,-1,-1,-1],"split_conditions":[3.84999990463256836e+00,4.73000001907348633e+00,3.95000000000000000e+01,1.45500000000000000e+02,1.89999997615814209e+00,5.25000000000000000e+01,9.90000000000000000e+01,2.61637754738330841e-02,-1.18841573596000671e-01,4.88369464874267578e-02,-1.45769327878952026e-01,-3.61836254596710205e-02,-3.38907237164676189e-03,1.98545418679714203e-02,-8.97831991314888000e-02],"split_indices":[5,6,7,7,5,1,7,0,0,0,0,0,0,0,0],"sum_hessian":[1.93813110351562500e+03,5.49569274902343750e+02,1.38856176757812500e+03,5.41723205566406250e+02,7.84606170654296875e+00,8.57794250488281250e+02,5.30767578125000000e+02,5.38647644042968750e+02,3.07558512687683105e+00,2.27176451683044434e+00,5.57429742813110352e+00,3.94096405029296875e+02,4.63697845458984375e+02,5.09041320800781250e+02,2.17262344360351563e+01],"tree_param":{"num_feature":"10","num_nodes":"15","size_leaf_vector":"0"}},{"base_weights":[3.34734767675399780e-02,1.73932448029518127e-01,-2.21420884132385254e-01,-8.04366245865821838e-02,2.83061444759368896e-01,-8.91664683818817139e-01,-1.09913818538188934e-01,-4.58627454936504364e-02,-1.55689489841461182e+00,2.03229352831840515e-01,5.34248650074005127e-01,-9.79312896728515625e-01,4.74416434764862061e-01,-3.44709232449531555e-02,-6.38016104698181152e-01],"default_left":[true,true,true,true,true,true,true,false,false,false,false,false,false,false,false],"id":28,"leaf_child_counts":[0,0,0,2,2,2,2,0,0,0,0,0,0,0,0],"left_children":[1,3,5,7,9,11,13,-1,-1,-1,-1,-1,-1,-1,-1],"loss_changes":[6.97699432373046875e+01,3.48959732055664063e+01,5.16500625610351563e+01,1.92211799621582031e+01,1.75247344970703125e+01,1.22730789184570313e+01,2.36750068664550781e+01,0.00000000000000000e+00,0.00000000000000000e+00,0.00000000000000000e+00,0.00000000000000000e+00,0.00000000000000000e+00,0.00000000000000000e+00,0.00000000000000000e+00,0.00000000000000000e+00],"parents":[2147483647,0,0,1,1,2,2,3,3,4,4,5,5,6,6],"right_children":[2,4,6,8,10,12,14,-1,-1,-1,-1,-1,-1,-1,-1],"split_conditions":[1.52500000000000000e+02,5.05000000000000000e+01,4.05000000000000000e+01,4.75000000000000000e+00,1.49000000953674316e+00,1.49000000000000000e+03,6.05500000000000000e+02,-3.21039208211004734e-03,-1.08982644975185394e-01,1.42260547727346420e-02,3.73974069952964783e-02,-6.85519054532051086e-02,3.32091487944126129e-02,-2.41296458989381790e-03,-4.46611270308494568e-02],"split_indices":[4,1,1,5,6,8,8,0,0,0,0,0,0,0,0],"sum_hessian":[1.94668554687500000e+03,1.25528247070312500e+03,6.91403015136718750e+02,3.76938476562500000e+02,8.78343994140625000e+02,9.76221084594726563e+01,5.93780883789062500e+02,3.69321228027343750e+02,7.61724615097045898e+00,6.67886108398437500e+02,2.10457901000976563e+02,9.20023345947265625e+01,5.61977672576904297e+00,5.20490661621093750e+02,7.32902526855468750e+01],"tree_param":{"num_feature":"10","num_nodes":"15","size_leaf_vector":"0"}},{"base_weights":[6.49888999760150909e-03,-3.07674825191497803e-01,1.50894373655319214e-01,1.68748572468757629e-01,-5.03399848937988281e-01,1.95566058158874512e-01,-6.17913424968719482e-01,2.73652791976928711e-01,-1.44648492336273193e+00,-2.00857114791870117e+00,-4.64190751314163208e-01,2.22563803195953369e-01,-7.94376194477081299e-01,-9.18726801872253418e-01,1.12256932258605957e+00],"default_left":[true,true,true,true,true,true,true,false,false,false,false,false,false,false,false],"id":29,"leaf_child_counts":[0,0,0,2,2,2,2,0,0,0,0,0,0,0,0],"left_children":[1,3,5,7,9,11,13,-1,-1,-1,-1,-1,-1,-1,-1],"loss_changes":[8.65551834106445313e+01,5.61074714660644531e+01,4.50134277343750000e+01,3.01664505004882813e+01,2.42142944335937500e+01,3.32137489318847656e+01,3.87389526367187500e+01,0.00000000000000000e+00,0.00000000000000000e+00,0.00000000000000000e+00,0.00000000000000000e+00,0.00000000000000000e+00,0.00000000000000000e+00,0.00000000000000000e+00,0.00000000000000000e+00],"parents":[2147483647,0,0,1,1,2,2,3,3,4,4,5,5,6,6],"right_children":[2,4,6,8,10,12,14,-1,-1,-1,-1,-1,-1,-1,-1],"split_conditions":[5.00000000000000000e-01,9.85000000000000000e+01,2.33500000000000000e+02,5.15000000000000000e+01,1.03500000000000000e+02,4.75000000000000000e+00,3.48500000000000000e+02,1.91556960344314575e-02,-1.01253941655158997e-01,-1.40599980950355530e-01,-3.24933528900146484e-02,1.55794667080044746e-02,-5.56063354015350342e-02,-6.43108785152435303e-02,7.85798504948616028e-02],"split_indices":[0,4,4,7,4,5,4,0,0,0,0,0,0,0,0],"sum_hessian":[1.90593823242187500e+03,5.99790771484375000e+02,1.30614733886718750e+03,1.74695098876953125e+02,4.25095703125000000e+02,1.23512585449218750e+03,7.10215301513671875e+01,1.64821075439453125e+02,9.87401771545410156e+00,9.51725387573242188e+00,4.15578430175781250e+02,1.20309033203125000e+03,3.20355453491210938e+01,6.09580879211425781e+01,1.00634441375732422e+01],"tree_param":{"num_feature":"10","num_nodes":"15","size_leaf_vector":"0"}},{"base_weights":[1.91580075770616531e-02,3.16501438617706299e-01,-1.07127547264099121e-01,3.44796210527420044e-01,-1.31986248493194580e+00,-2.79850840568542480e-01,9.32951718568801880e-02,-1.04040659964084625e-01,4.48252350091934204e-01,9.07510817050933838e-01,-1.99709439277648926e+00,-3.70487987995147705e-01,9.27277281880378723e-02,-3.33303272724151611e-01,2.66290932893753052e-01],"default_left":[true,true,true,true,true,true,true,false,false,false,false,false,false,false,false],"id":30,"leaf_child_counts":[0,0,0,2,2,2,2,0,0,0,0,0,0,0,0],"left_children":[1,3,5,7,9,11,13,-1,-1,-1,-1,-1,-1,-1,-1],"loss_changes":[7.09493408203125000e+01,2.65333099365234375e+01,4.59399871826171875e+01,2.57928161621093750e+01,1.65660247802734375e+01,2.40996246337890625e+01,4.54519042968750000e+01,0.00000000000000000e+00,0.00000000000000000e+00,0.00000000000000000e+00,0.00000000000000000e+00,0.00000000000000000e+00,0.00000000000000000e+00,0.00000000000000000e+00,0.00000000000000000e+00],"parents":[2147483647,0,0,1,1,2,2,3,3,4,4,5,5,6,6],"right_children":[2,4,6,8,10,12,14,-1,-1,-1,-1,-1,-1,-1,-1],"split_conditions":[3.84999990463256836e+00,4.73000001907348633e+00,3.55000000000000000e+01,6.00000000000000000e+00,1.89999997615814209e+00,1.25000000000000000e+00,5.00000000000000000e-01,-7.28284614160656929e-03,3.13776656985282898e-02,6.35257586836814880e-02,-1.39796614646911621e-01,-2.59341597557067871e-02,6.49094115942716599e-03,-2.33312286436557770e-02,1.86403654515743256e-02],"split_indices":[5,6,7,8,5,6,3,0,0,0,0,0,0,0,0],"sum_hessian":[1.88755114746093750e+03,5.62237792968750000e+02,1.32531335449218750e+03,5.53457092285156250e+02,8.78067493438720703e+00,7.11634216308593750e+02,6.13679138183593750e+02,1.03673133850097656e+02,4.49783996582031250e+02,1.96800351142883301e+00,6.81267118453979492e+00,5.72393676757812500e+02,1.39240524291992188e+02,1.76792205810546875e+02,4.36886901855468750e+02],"tree_param":{"num_feature":"10","num_nodes":"15","size_leaf_vector":"0"}},{"base_weights":[4.52649965882301331e-02,-2.54746705293655396e-01,1.97839424014091492e-01,-4.48837801814079285e-02,-4.87460434436798096e-01,-3.69720607995986938e-02,3.05720150470733643e-01,-1.45333564281463623e+00,1.44959334284067154e-02,-9.11922693252563477e-01,-2.25281849503517151e-01,-1.50576579570770264e+00,2.07334980368614197e-02,1.84081926941871643e-01,5.11658608913421631e-01],"default_left":[true,true,true,true,true,true,true,false,false,false,false,false,false,false,false],"id":31,"leaf_child_counts":[0,0,0,2,2,2,2,0,0,0,0,0,0,0,0],"left_children":[1,3,5,7,9,11,13,-1,-1,-1,-1,-1,-1,-1,-1],"loss_changes":[8.75939712524414063e+01,3.14872894287109375e+01,3.21403083801269531e+01,2.84853668212890625e+01,3.38290023803710938e+01,3.39485282897949219e+01,2.16784210205078125e+01,0.00000000000000000e+00,0.00000000000000000e+00,0.00000000000000000e+00,0.00000000000000000e+00,0.00000000000000000e+00,0.00000000000000000e+00,0.00000000000000000e+00,0.00000000000000000e+00],"parents":[2147483647,0,0,1,1,2,2,3,3,4,4,5,5,6,6],"right_children":[2,4,6,8,10,12,14,-1,-1,-1,-1,-1,-1,-1,-1],"split_conditions":[5.00000000000000000e-01,1.62500000000000000e+02,5.00000000000000000e-01,3.04999995231628418e+00,4.75000000000000000e+01,4.35000000000000000e+01,4.45000000000000000e+01,-1.01733498275279999e-01,1.01471529342234135e-03,-6.38345852494239807e-02,-1.57697293907403946e-02,-1.05403609573841095e-01,1.45134481135755777e-03,1.28857353702187538e-02,3.58161032199859619e-02],"split_indices":[3,4,0,5,1,1,7,0,0,0,0,0,0,0,0],"sum_hessian":[1.91151269531250000e+03,6.44177429199218750e+02,1.26733520507812500e+03,3.39345794677734375e+02,3.04831634521484375e+02,3.99168518066406250e+02,8.68166687011718750e+02,1.27782373428344727e+01,3.26567565917968750e+02,1.15446945190429688e+02,1.89384689331054688e+02,1.41409711837768555e+01,3.85027557373046875e+02,5.46983215332031250e+02,3.21183502197265625e+02],"tree_param":{"num_feature":"10","num_nodes":"15","size_leaf_vector":"0"}},{"base_weights":[5.39021380245685577e-02,-2.17155843973159790e-01,1.90518230199813843e-01,-6.45749211311340332e-01,-3.00428941845893860e-02,2.07766219973564148e-01,-1.00772917270660400e+00,-1.07606148719787598e+00,-4.87904161214828491e-01,8.07484760880470276e-02,-6.80330038070678711e-01,9.06936451792716980e-02,4.41143006086349487e-01,-5.93624785542488098e-02,-2.02673983573913574e+00],"default_left":[true,true,true,true,true,true,true,false,false,false,false,false,false,false,false],"id":32,"leaf_child_counts":[0,0,0,2,2,2,2,0,0,0,0,0,0,0,0],"left_children":[1,3,5,7,9,11,13,-1,-1,-1,-1,-1,-1,-1,-1],"loss_changes":[7.04007186889648438e+01,5.10798339843750000e+01,2.63294715881347656e+01,1.26242218017578125e+01,3.20861701965332031e+01,3.40231399536132813e+01,1.73761310577392578e+01,0.00000000000000000e+00,0.00000000000000000e+00,0.00000000000000000e+00,0.00000000000000000e+00,0.00000000000000000e+00,0.00000000000000000e+00,0.00000000000000000e+00,0.00000000000000000e+00],"parents":[2147483647,0,0,1,1,2,2,3,3,4,4,5,5,6,6],"right_children":[2,4,6,8,10,12,14,-1,-1,-1,-1,-1,-1,-1,-1],"split_conditions":[5.00000000000000000e-01,4.75000000000000000e+01,9.55000000000000000e+01,2.15000000000000000e+01,5.32500000000000000e+02,4.25000000000000000e+01,3.75000000000000000e+00,-7.53243044018745422e-02,-3.41532900929450989e-02,5.65239321440458298e-03,-4.76231016218662262e-02,6.34855497628450394e-03,3.08800097554922104e-02,-4.15537366643548012e-03,-1.41871795058250427e-01],"split_indices":[3,1,7,7,8,7,5,0,0,0,0,0,0,0,0],"sum_hessian":[1.89901782226562500e+03,6.36184326171875000e+02,1.26283349609375000e+03,1.92591339111328125e+02,4.43593017578125000e+02,1.24572863769531250e+03,1.71048412322998047e+01,5.01249618530273438e+01,1.42466369628906250e+02,3.79766815185546875e+02,6.38261871337890625e+01,8.30500122070312500e+02,4.15228576660156250e+02,9.40764617919921875e+00,7.69719505310058594e+00],"tree_param":{"num_feature":"10","num_nodes":"15","size_leaf_vector":"0"}},{"base_weights":[-2.74193473160266876e-03,-2.99418985843658447e-01,1.54513329267501831e-01,-1.31075099110603333e-01,-8.05343687534332275e-01,4.96019572019577026e-02,4.20624375343322754e-01,-6.65726959705352783e-01,1.91448237746953964e-02,-1.07112038135528564e+00,-1.68147489428520203e-01,-1.06252349913120270e-01,2.01610833406448364e-01,4.07416969537734985e-02,5.50547003746032715e-01],"default_left":[true,true,true,true,true,true,true,false,false,false,false,false,false,false,false],"id":33,"leaf_child_counts":[0,0,0,2,2,2,2,0,0,0,0,0,0,0,0],"left_children":[1,3,5,7,9,11,13,-1,-1,-1,-1,-1,-1,-1,-1],"loss_changes":[8.76963882446289063e+01,5.53554420471191406e+01,3.42776260375976563e+01,3.93511314392089844e+01,2.73203201293945313e+01,2.09239292144775391e+01,1.71163139343261719e+01,0.00000000000000000e+00,0.00000000000000000e+00,0.00000000000000000e+00,0.00000000000000000e+00,0.00000000000000000e+00,0.00000000000000000e+00,0.00000000000000000e+00,0.00000000000000000e+00],"parents":[2147483647,0,0,1,1,2,2,3,3,4,4,5,5,6,6],"right_children":[2,4,6,8,10,12,14,-1,-1,-1,-1,-1,-1,-1,-1],"split_conditions":[5.05000000000000000e+01,5.00000000000000000e-01,1.29499995708465576e+00,2.45000000000000000e+01,5.25000000000000000e+01,3.25000000000000000e+01,5.45000000000000000e+01,-4.66008856892585754e-02,1.34013767819851637e-03,-7.49784260988235474e-02,-1.17703238502144814e-02,-7.43766454979777336e-03,1.41127584502100945e-02,2.85191880539059639e-03,3.85382920503616333e-02],"split_indices":[1,2,6,7,7,7,1,0,0,0,0,0,0,0,0],"sum_hessian":[1.87772583007812500e+03,6.50185302734375000e+02,1.22754052734375000e+03,4.88798980712890625e+02,1.61386291503906250e+02,8.81288513183593750e+02,3.46251983642578125e+02,1.06460563659667969e+02,3.82338409423828125e+02,1.13404075622558594e+02,4.79822196960449219e+01,4.35288940429687500e+02,4.45999603271484375e+02,8.85762252807617188e+01,2.57675750732421875e+02],"tree_param":{"num_feature":"10","num_nodes":"15","size_leaf_vector":"0"}},{"base_weights":[4.34480048716068268e-02,-1.99031904339790344e-01,1.65310859680175781e-01,-5.16749620437622070e-01,6.00494667887687683e-02,-2.15731829404830933e-01,2.59439557790756226e-01,1.18917331099510193e-01,-7.18677997589111328e-01,2.22332552075386047e-01,-3.30894559621810913e-01,-1.69822350144386292e-01,-1.71856176853179932e+00,-2.25732064247131348e+00,2.68068879842758179e-01],"default_left":[true,true,true,true,true,true,true,false,false,false,false,false,false,false,false],"id":34,"leaf_child_counts":[0,0,0,2,2,2,2,0,0,0,0,0,0,0,0],"left_children":[1,3,5,7,9,11,13,-1,-1,-1,-1,-1,-1,-1,-1],"loss_changes":[5.60330543518066406e+01,5.22455978393554688e+01,4.53135566711425781e+01,3.66711654663085938e+01,2.22980136871337891e+01,1.69914779663085938e+01,2.25904541015625000e+01,0.00000000000000000e+00,0.00000000000000000e+00,0.00000000000000000e+00,0.00000000000000000e+00,0.00000000000000000e+00,0.00000000000000000e+00,0.00000000000000000e+00,0.00000000000000000e+00],"parents":[2147483647,0,0,1,1,2,2,3,3,4,4,5,5,6,6],"right_children":[2,4,6,8,10,12,14,-1,-1,-1,-1,-1,-1,-1,-1],"split_conditions":[5.00000000000000000e-01,5.15000000000000000e+01,1.10000000000000000e+01,1.18500000000000000e+02,5.00000000000000000e-01,4.75000000000000000e+00,3.10000000000000000e+01,8.32421332597732544e-03,-5.03074601292610168e-02,1.55632784590125084e-02,-2.31626201421022415e-02,-1.18875643238425255e-02,-1.20299324393272400e-01,-1.58012449741363525e-01,1.87648218125104904e-02],"split_indices":[3,1,8,4,9,5,4,0,0,0,0,0,0,0,0],"sum_hessian":[1.89414355468750000e+03,6.33328308105468750e+02,1.26081518554687500e+03,2.84025909423828125e+02,3.49302368164062500e+02,2.49504257202148438e+02,1.01131097412109375e+03,6.85723800659179688e+01,2.15453536987304688e+02,2.47143127441406250e+02,1.02159225463867188e+02,2.43188186645507813e+02,6.31607866287231445e+00,2.56524777412414551e+00,1.00874572753906250e+03],"tree_param":{"num_feature":"10","num_nodes":"15","size_leaf_vector":"0"}},{"base_weights":[2.68661510199308395e-02,1.36012315750122070e-01,-2.72392302751541138e-01,-1.50604367256164551e-01,2.29936167597770691e-01,-5.88332474231719971e-01,9.44967716932296753e-02,-2.21065923571586609e-01,1.16777741909027100e+00,2.60438442230224609e-01,-8.81837785243988037e-01,1.27246677875518799e-01,-7.97763288021087646e-01,-1.05737137794494629e+00,2.20502451062202454e-01],"default_left":[true,true,true,true,true,true,true,false,false,false,false,false,false,false,false],"id":35,"leaf_child_counts":[0,0,0,2,2,2,2,0,0,0,0,0,0,0,0],"left_children":[1,3,5,7,9,11,13,-1,-1,-1,-1,-1,-1,-1,-1],"loss_changes":[6.17568702697753906e+01,3.73263244628906250e+01,5.86307678222656250e+01,3.20759429931640625e+01,3.56252136230468750e+01,4.08129119873046875e+01,3.42941207885742188e+01,0.00000000000000000e+00,0.00000000000000000e+00,0.00000000000000000e+00,0.00000000000000000e+00,0.00000000000000000e+00,0.00000000000000000e+00,0.00000000000000000e+00,0.00000000000000000e+00],"parents":[2147483647,0,0,1,1,2,2,3,3,4,4,5,5,6,6],"right_children":[2,4,6,8,10,12,14,-1,-1,-1,-1,-1,-1,-1,-1],"split_conditions":[5.00000000000000000e-01,2.45000000000000000e+01,5.55000000000000000e+01,7.45000000000000000e+01,2.45500000000000000e+02,3.75000000000000000e+00,8.45000000000000000e+01,-1.54746146872639656e-02,8.17444175481796265e-02,1.82306915521621704e-02,-6.17286451160907745e-02,8.90726782381534576e-03,-5.58434315025806427e-02,-7.40159973502159119e-02,1.54351713135838509e-02],"split_indices":[2,7,1,1,4,5,4,0,0,0,0,0,0,0,0],"sum_hessian":[1.88859960937500000e+03,1.38427099609375000e+03,5.04328643798828125e+02,3.41512603759765625e+02,1.04275830078125000e+03,2.70655090332031250e+02,2.33673538208007813e+02,3.24976409912109375e+02,1.65362033843994141e+01,1.01565881347656250e+03,2.70995445251464844e+01,6.13676605224609375e+01,2.09287445068359375e+02,2.23127098083496094e+01,2.11360824584960938e+02],"tree_param":{"num_feature":"10","num_nodes":"15","size_leaf_vector":"0"}},{"base_weights":[3.27633172273635864e-02,8.96854400634765625e-02,-3.89617025852203369e-01,9.93063300848007202e-02,-1.99631965160369873e+00,-1.12488043308258057e+00,-1.94431573152542114e-01,-1.48545518517494202e-01,1.72227054834365845e-01,-6.78225532174110413e-02,-1.52475643157958984e+00],"default_left":[true,true,true,true,false,false,true,false,false,false,false],"id":36,"leaf_child_counts":[0,1,1,2,0,0,2,0,0,0,0],"left_children":[1,3,5,7,-1,-1,9,-1,-1,-1,-1],"loss_changes":[4.47552185058593750e+01,3.31106452941894531e+01,3.15097618103027344e+01,2.95463161468505859e+01,0.00000000000000000e+00,0.00000000000000000e+00,2.95262393951416016e+01,0.00000000000000000e+00,0.00000000000000000e+00,0.00000000000000000e+00,0.00000000000000000e+00],"parents":[2147483647,0,0,1,1,2,2,3,3,6,6],"right_children":[2,4,6,8,-1,-1,10,-1,-1,-1,-1],"split_conditions":[2.01500000000000000e+02,4.67999982833862305e+00,4.25000000000000000e+01,2.45000000000000000e+01,-1.39742374420166016e-01,-7.87416324019432068e-02,5.45000000000000000e+01,-1.03981867432594299e-02,1.20558934286236763e-02,-4.74757887423038483e-03,-1.06732949614524841e-01],"split_indices":[4,6,1,7,0,0,7,0,0,0,0],"sum_hessian":[1.85902880859375000e+03,1.63894396972656250e+03,2.20084777832031250e+02,1.63236767578125000e+03,6.57626724243164063e+00,4.51692199707031250e+01,1.74915557861328125e+02,3.70847839355468750e+02,1.26151989746093750e+03,1.60674865722656250e+02,1.42406873703002930e+01],"tree_param":{"num_feature":"10","num_nodes":"11","size_leaf_vector":"0"}},{"base_weights":[-1.81422773748636246e-02,8.30918699502944946e-02,-2.97035902738571167e-01,1.38885632157325745e-01,-2.79290437698364258e-01,-7.87404298782348633e-01,-6.95823729038238525e-02,-6.22435957193374634e-02,2.31029346585273743e-01,-1.15227782726287842e+00,-9.02902111411094666e-02,-6.47709906101226807e-01,-1.57228791713714600e+00,1.55686050653457642e-01,-4.75796788930892944e-01],"default_left":[true,true,true,true,true,true,true,false,false,false,false,false,false,false,false],"id":37,"leaf_child_counts":[0,0,0,2,2,2,2,0,0,0,0,0,0,0,0],"left_children":[1,3,5,7,9,11,13,-1,-1,-1,-1,-1,-1,-1,-1],"loss_changes":[5.19866218566894531e+01,2.73557662963867188e+01,5.46374702453613281e+01,2.17252063751220703e+01,2.96932067871093750e+01,1.60071182250976563e+01,3.08273983001708984e+01,0.00000000000000000e+00,0.00000000000000000e+00,0.00000000000000000e+00,0.00000000000000000e+00,0.00000000000000000e+00,0.00000000000000000e+00,0.00000000000000000e+00,0.00000000000000000e+00],"parents":[2147483647,0,0,1,1,2,2,3,3,4,4,5,5,6,6],"right_children":[2,4,6,8,10,12,14,-1,-1,-1,-1,-1,-1,-1,-1],"split_conditions":[5.00000000000000000e-01,1.94500000000000000e+02,5.05000000000000000e+01,5.00000000000000000e-01,4.25000000000000000e+01,4.85000000000000000e+01,9.04999971389770508e-01,-4.35705156996846199e-03,1.61720551550388336e-02,-8.06594491004943848e-02,-6.32031494751572609e-03,-4.53396923840045929e-02,-1.10060155391693115e-01,1.08980238437652588e-02,-3.33057753741741180e-02],"split_indices":[2,4,1,0,1,1,6,0,0,0,0,0,0,0,0],"sum_hessian":[1.83943176269531250e+03,1.35007653808593750e+03,4.89355194091796875e+02,1.17048144531250000e+03,1.79595046997070313e+02,1.54280075073242188e+02,3.35075103759765625e+02,3.67856689453125000e+02,8.02624816894531250e+02,3.10551929473876953e+01,1.48539855957031250e+02,1.32519378662109375e+02,2.17607040405273438e+01,2.15940734863281250e+02,1.19134376525878906e+02],"tree_param":{"num_feature":"10","num_nodes":"15","size_leaf_vector":"0"}},{"base_weights":[-2.08824127912521362e-02,1.64821594953536987e-01,-2.32307985424995422e-01,1.78581863641738892e-01,-1.83146405220031738e+00,-5.41412472724914551e-01,-8.65702554583549500e-02,6.72817528247833252e-02,3.79714727401733398e-01,-1.38130474090576172e+00,-4.17905360460281372e-01,-4.08170312643051147e-01,5.72455227375030518e-02],"default_left":[true,true,true,true,false,true,true,false,false,false,false,false,false],"id":38,"leaf_child_counts":[0,1,0,2,0,2,2,0,0,0,0,0,0],"left_children":[1,3,5,7,-1,9,11,-1,-1,-1,-1,-1,-1],"loss_changes":[7.16738510131835938e+01,2.70255413055419922e+01,3.84058837890625000e+01,2.16037178039550781e+01,0.00000000000000000e+00,2.77741470336914063e+01,2.69082107543945313e+01,0.00000000000000000e+00,0.00000000000000000e+00,0.00000000000000000e+00,0.00000000000000000e+00,0.00000000000000000e+00,0.00000000000000000e+00],"parents":[2147483647,0,0,1,1,2,2,3,3,5,5,6,6],"right_children":[2,4,6,8,-1,10,12,-1,-1,-1,-1,-1,-1],"split_conditions":[1.34500000000000000e+02,4.67999982833862305e+00,5.00000000000000000e-01,4.25000000000000000e+01,-1.28202483057975769e-01,1.65000000000000000e+01,4.75000000000000000e+01,4.70972293987870216e-03,2.65800319612026215e-02,-9.66913327574729919e-02,-2.92533747851848602e-02,-2.85719223320484161e-02,4.00718674063682556e-03],"split_indices":[4,6,0,7,0,7,1,0,0,0,0,0,0],"sum_hessian":[1.82352526855468750e+03,9.70933654785156250e+02,8.52591552734375000e+02,9.65191223144531250e+02,5.74246168136596680e+00,2.72312225341796875e+02,5.80279357910156250e+02,6.22213745117187500e+02,3.42977478027343750e+02,3.36046447753906250e+01,2.38707580566406250e+02,1.78741165161132813e+02,4.01538177490234375e+02],"tree_param":{"num_feature":"10","num_nodes":"13","size_leaf_vector":"0"}},{"base_weights":[-2.64152735471725464e-02,1.07024781405925751e-01,-2.68984049558639526e-01,1.27257660031318665e-01,-1.27395236492156982e+00,-5.34972250461578369e-01,-3.41551676392555237e-02,-1.10612899065017700e-01,2.36992850899696350e-01,-1.97730660438537598e-01,-1.85691201686859131e+00,-5.82490324974060059e-01,1.27472686767578125e+00,6.82823240756988525e-01,-1.30819812417030334e-01],"default_left":[true,true,true,true,true,true,true,false,false,false,false,false,false,false,false],"id":39,"leaf_child_counts":[0,0,0,2,2,2,2,0,0,0,0,0,0,0,0],"left_children":[1,3,5,7,9,11,13,-1,-1,-1,-1,-1,-1,-1,-1],"loss_changes":[5.77832717895507813e+01,3.23442955017089844e+01,3.95513381958007813e+01,2.96805953979492188e+01,1.01241703033447266e+01,2.62804718017578125e+01,2.34820861816406250e+01,0.00000000000000000e+00,0.00000000000000000e+00,0.00000000000000000e+00,0.00000000000000000e+00,0.00000000000000000e+00,0.00000000000000000e+00,0.00000000000000000e+00,0.00000000000000000e+00],"parents":[2147483647,0,0,1,1,2,2,3,3,4,4,5,5,6,6],"right_children":[2,4,6,8,10,12,14,-1,-1,-1,-1,-1,-1,-1,-1],"split_conditions":[1.50500000000000000e+02,9.95000000000000000e+01,5.25000000000000000e+01,5.00000000000000000e-01,7.60000000000000000e+01,3.48500000000000000e+02,5.35000000000000000e+01,-7.74290319532155991e-03,1.65895000100135803e-02,-1.38411466032266617e-02,-1.29983842372894287e-01,-4.07743230462074280e-02,8.92308801412582397e-02,4.77976277470588684e-02,-9.15738660842180252e-03],"split_indices":[4,7,1,0,4,4,1,0,0,0,0,0,0,0,0],"sum_hessian":[1.78328637695312500e+03,1.15078454589843750e+03,6.32501831054687500e+02,1.13506237792968750e+03,1.57220983505249023e+01,2.95975463867187500e+02,3.36526397705078125e+02,3.58323791503906250e+02,7.76738586425781250e+02,5.99454593658447266e+00,9.72755241394042969e+00,2.89063537597656250e+02,6.91194772720336914e+00,3.92605133056640625e+01,2.97265869140625000e+02],"tree_param":{"num_feature":"10","num_nodes":"15","size_leaf_vector":"0"}},{"base_weights":[-1.53792425990104675e-02,1.84299126267433167e-01,-1.68110772967338562e-01,2.03337803483009338e-01,-1.71076440811157227e+00,-3.55786532163619995e-01,1.17835685610771179e-01,-1.74028551578521729e+00,2.16564163565635681e-01,-2.08796441555023193e-01,-6.11679613590240479e-01,1.88204601407051086e-01,-1.29728806018829346e+00],"default_left":[true,true,true,true,false,true,true,false,false,false,false,false,false],"id":40,"leaf_child_counts":[0,1,0,2,0,2,2,0,0,0,0,0,0],"left_children":[1,3,5,7,-1,9,11,-1,-1,-1,-1,-1,-1],"loss_changes":[5.56160774230957031e+01,2.88647270202636719e+01,5.54910011291503906e+01,2.05163688659667969e+01,0.00000000000000000e+00,2.33455734252929688e+01,4.10900917053222656e+01,0.00000000000000000e+00,0.00000000000000000e+00,0.00000000000000000e+00,0.00000000000000000e+00,0.00000000000000000e+00,0.00000000000000000e+00],"parents":[2147483647,0,0,1,1,2,2,3,3,5,5,6,6],"right_children":[2,4,6,8,-1,10,12,-1,-1,-1,-1,-1,-1],"split_conditions":[4.05000019073486328e+00,4.64999961853027344e+00,3.95000000000000000e+01,8.50000000000000000e+00,-1.19753509759902954e-01,1.64500000000000000e+02,2.27500000000000000e+02,-1.21819987893104553e-01,1.51594914495944977e-02,-1.46157508715987206e-02,-4.28175739943981171e-02,1.31743224337697029e-02,-9.08101648092269897e-02],"split_indices":[5,6,7,7,0,4,4,0,0,0,0,0,0],"sum_hessian":[1.82163049316406250e+03,7.89389953613281250e+02,1.03224047851562500e+03,7.82422058105468750e+02,6.96786546707153320e+00,6.23061340332031250e+02,4.09179199218750000e+02,4.40582752227783203e+00,7.78016235351562500e+02,3.96893676757812500e+02,2.26167648315429688e+02,3.90622009277343750e+02,1.85571937561035156e+01],"tree_param":{"num_feature":"10","num_nodes":"13","size_leaf_vector":"0"}},{"base_weights":[2.83135771751403809e-02,5.15191704034805298e-02,-9.90592002868652344e-01,3.89888845384120941e-02,1.75717449188232422e+00,1.00157463550567627e+00,-1.16157221794128418e+00,-1.60325407981872559e-01,1.34225174784660339e-01,2.36582016944885254e+00,-1.20281124114990234e+00,-1.35218274593353271e+00,-3.77796292304992676e-01],"default_left":[true,true,true,true,true,false,true,false,false,false,false,false,false],"id":41,"leaf_child_counts":[0,0,1,2,2,0,2,0,0,0,0,0,0],"left_children":[1,3,5,7,9,-1,11,-1,-1,-1,-1,-1,-1],"loss_changes":[4.36168975830078125e+01,3.84545593261718750e+01,1.51558227539062500e+01,3.40058708190917969e+01,2.64865036010742188e+01,0.00000000000000000e+00,5.21029281616210938e+00,0.00000000000000000e+00,0.00000000000000000e+00,0.00000000000000000e+00,0.00000000000000000e+00,0.00000000000000000e+00,0.00000000000000000e+00],"parents":[2147483647,0,0,1,1,2,2,3,3,4,4,6,6],"right_children":[2,4,6,8,10,-1,12,-1,-1,-1,-1,-1,-1],"split_conditions":[2.63500000000000000e+02,2.59500000000000000e+02,2.84999990463256836e+00,5.00000000000000000e-01,5.00000000000000000e-01,7.01102241873741150e-02,4.65000000000000000e+01,-1.12227788195014000e-02,9.39576234668493271e-03,1.65607407689094543e-01,-8.41967836022377014e-02,-9.46527943015098572e-02,-2.64457408338785172e-02],"split_indices":[4,4,5,0,3,0,7,0,0,0,0,0,0],"sum_hessian":[1.84155175781250000e+03,1.80147265625000000e+03,4.00791358947753906e+01,1.78935034179687500e+03,1.21222772598266602e+01,2.78397417068481445e+00,3.72951622009277344e+01,5.78325134277343750e+02,1.21102514648437500e+03,1.02212667465209961e+01,1.90101087093353271e+00,2.94160919189453125e+01,7.87906885147094727e+00],"tree_param":{"num_feature":"10","num_nodes":"13","size_leaf_vector":"0"}},{"base_weights":[3.61890532076358795e-02,-5.55122792720794678e-01,7.87761807441711426e-02,-7.02153444290161133e-01,8.34244847297668457e-01,1.60707190632820129e-01,-1.52929306030273438e-01,-7.84418165683746338e-01,8.34481656551361084e-01,-2.93007016181945801e-01,2.04596567153930664e+00,-2.28087496757507324e+00,1.69602558016777039e-01,-4.01046246290206909e-01,8.56948867440223694e-02],"default_left":[true,true,true,true,true,true,true,false,false,false,false,false,false,false,false],"id":42,"leaf_child_counts":[0,0,0,2,2,2,2,0,0,0,0,0,0,0,0],"left_children":[1,3,5,7,9,11,13,-1,-1,-1,-1,-1,-1,-1,-1],"loss_changes":[4.69318580627441406e+01,2.61647148132324219e+01,3.30134887695312500e+01,1.50370368957519531e+01,1.75913276672363281e+01,2.82796783447265625e+01,2.69414100646972656e+01,0.00000000000000000e+00,0.00000000000000000e+00,0.00000000000000000e+00,0.00000000000000000e+00,0.00000000000000000e+00,0.00000000000000000e+00,0.00000000000000000e+00,0.00000000000000000e+00],"parents":[2147483647,0,0,1,1,2,2,3,3,4,4,5,5,6,6],"right_children":[2,4,6,8,10,12,14,-1,-1,-1,-1,-1,-1,-1,-1],"split_conditions":[3.95000000000000000e+01,1.49500000000000000e+03,5.00000000000000000e-01,3.54999995231628418e+00,4.55000019073486328e+00,3.15000000000000000e+01,5.55000000000000000e+01,-5.49092702567577362e-02,5.84137178957462311e-02,-2.05104909837245941e-02,1.43217593431472778e-01,-1.59661248326301575e-01,1.18721788749098778e-02,-2.80732382088899612e-02,5.99864218384027481e-03],"split_indices":[1,8,2,6,5,4,1,0,0,0,0,0,0,0,0],"sum_hessian":[1.86094970703125000e+03,1.24215332031250000e+02,1.73673437500000000e+03,1.12775428771972656e+02,1.14399042129516602e+01,1.28327502441406250e+03,4.53459381103515625e+02,1.07509368896484375e+02,5.26605844497680664e+00,6.31930541992187500e+00,5.12059831619262695e+00,3.73119425773620605e+00,1.27954382324218750e+03,2.21974166870117188e+02,2.31485214233398438e+02],"tree_param":{"num_feature":"10","num_nodes":"15","size_leaf_vector":"0"}},{"base_weights":[1.83707773685455322e-02,9.81530472636222839e-02,-1.99715197086334229e-01,8.09184536337852478e-02,1.10279452800750732e+00,-1.08126974105834961e+00,-1.02667801082134247e-01,-8.68831202387809753e-02,1.69479385018348694e-01,6.29040300846099854e-02,1.35033524036407471e+00,4.65170830488204956e-01,-1.20916175842285156e+00,-1.48018032312393188e-01,1.25513470172882080e+00],"default_left":[true,true,true,true,true,true,true,false,false,false,false,false,false,false,false],"id":43,"leaf_child_counts":[0,0,0,2,2,2,2,0,0,0,0,0,0,0,0],"left_children":[1,3,5,7,9,11,13,-1,-1,-1,-1,-1,-1,-1,-1],"loss_changes":[3.16117630004882813e+01,2.29400177001953125e+01,4.15236129760742188e+01,1.94628200531005859e+01,5.66904640197753906e+00,1.00867195129394531e+01,2.72486648559570313e+01,0.00000000000000000e+00,0.00000000000000000e+00,0.00000000000000000e+00,0.00000000000000000e+00,0.00000000000000000e+00,0.00000000000000000e+00,0.00000000000000000e+00,0.00000000000000000e+00],"parents":[2147483647,0,0,1,1,2,2,3,3,4,4,5,5,6,6],"right_children":[2,4,6,8,10,12,14,-1,-1,-1,-1,-1,-1,-1,-1],"split_conditions":[5.00000000000000000e-01,7.55000000000000000e+01,4.25000000000000000e+01,2.05000000000000000e+01,8.50000023841857910e-01,2.84999990463256836e+00,1.70600000000000000e+03,-6.08181860297918320e-03,1.18635566905140877e-02,4.40328195691108704e-03,9.45234671235084534e-02,3.25619578361511230e-02,-8.46413224935531616e-02,-1.03612625971436501e-02,8.78594294190406799e-02],"split_indices":[2,1,1,8,6,5,8,0,0,0,0,0,0,0,0],"sum_hessian":[1.81470458984375000e+03,1.32904919433593750e+03,4.85655395507812500e+02,1.30769628906250000e+03,2.13529453277587891e+01,4.71564216613769531e+01,4.38498992919921875e+02,4.51752807617187500e+02,8.55943481445312500e+02,4.34677076339721680e+00,1.70061759948730469e+01,3.40054869651794434e+00,4.37558746337890625e+01,4.25188781738281250e+02,1.33102035522460938e+01],"tree_param":{"num_feature":"10","num_nodes":"15","size_leaf_vector":"0"}},{"base_weights":[2.56637148559093475e-02,-2.18427941203117371e-01,1.43267631530761719e-01,-1.40356373786926270e+00,-1.85212135314941406e-01,5.39163462817668915e-02,3.18583577871322632e-01,-1.89292609691619873e+00,4.29555922746658325e-01,3.35344970226287842e-01,-2.55411058664321899e-01,-6.03113062679767609e-02,2.88528174161911011e-01,3.51387113332748413e-01,-1.63124597072601318e+00],"default_left":[true,true,true,true,true,true,true,false,false,false,false,false,false,false,false],"id":44,"leaf_child_counts":[0,0,0,2,2,2,2,0,0,0,0,0,0,0,0],"left_children":[1,3,5,7,9,11,13,-1,-1,-1,-1,-1,-1,-1,-1],"loss_changes":[5.23334159851074219e+01,2.30760421752929688e+01,1.92531833648681641e+01,1.51747093200683594e+01,2.11998481750488281e+01,2.18875122070312500e+01,2.71236763000488281e+01,0.00000000000000000e+00,0.00000000000000000e+00,0.00000000000000000e+00,0.00000000000000000e+00,0.00000000000000000e+00,0.00000000000000000e+00,0.00000000000000000e+00,0.00000000000000000e+00],"parents":[2147483647,0,0,1,1,2,2,3,3,4,4,5,5,6,6],"right_children":[2,4,6,8,10,12,14,-1,-1,-1,-1,-1,-1,-1,-1],"split_conditions":[5.00000000000000000e-01,3.04999995231628418e+00,4.25000000000000000e+01,3.34999990463256836e+00,3.65000009536743164e+00,5.00000000000000000e-01,2.24000000000000000e+02,-1.32504820823669434e-01,3.00689153373241425e-02,2.34741475433111191e-02,-1.78787745535373688e-02,-4.22179140150547028e-03,2.01969724148511887e-02,2.45970971882343292e-02,-1.14187218248844147e-01],"split_indices":[3,5,7,6,5,9,4,0,0,0,0,0,0,0,0],"sum_hessian":[1.82098413085937500e+03,5.91807189941406250e+02,1.22917687988281250e+03,1.50096292495727539e+01,5.76797546386718750e+02,8.15074584960937500e+02,4.14102294921875000e+02,1.18212499618530273e+01,3.18837881088256836e+00,6.80914230346679688e+01,5.08706146240234375e+02,5.48677673339843750e+02,2.66396911621093750e+02,4.08057006835937500e+02,6.04528188705444336e+00],"tree_param":{"num_feature":"10","num_nodes":"15","size_leaf_vector":"0"}},{"base_weights":[3.83375142700970173e-03,-2.74637281894683838e-01,7.44827017188072205e-02,2.43959218263626099e-01,-4.64788824319839478e-01,1.52093963697552681e-02,3.15670490264892578e-01,5.95109045505523682e-01,-8.08402523398399353e-02,-1.29263257980346680e+00,-3.71345490217208862e-01,3.40959839522838593e-02,-9.10495996475219727e-01,4.42779183387756348e-01,-2.01592549681663513e-01],"default_left":[true,true,true,true,true,true,true,false,false,false,false,false,false,false,false],"id":45,"leaf_child_counts":[0,0,0,2,2,2,2,0,0,0,0,0,0,0,0],"left_children":[1,3,5,7,9,11,13,-1,-1,-1,-1,-1,-1,-1,-1],"loss_changes":[3.46080169677734375e+01,3.52172622680664063e+01,2.00536575317382813e+01,1.10157489776611328e+01,1.96959152221679688e+01,1.97408046722412109e+01,1.82846469879150391e+01,0.00000000000000000e+00,0.00000000000000000e+00,0.00000000000000000e+00,0.00000000000000000e+00,0.00000000000000000e+00,0.00000000000000000e+00,0.00000000000000000e+00,0.00000000000000000e+00],"parents":[2147483647,0,0,1,1,2,2,3,3,4,4,5,5,6,6],"right_children":[2,4,6,8,10,12,14,-1,-1,-1,-1,-1,-1,-1,-1],"split_conditions":[4.65000000000000000e+01,3.84999990463256836e+00,6.35000000000000000e+01,7.15000000000000000e+01,4.05000019073486328e+00,1.39500000000000000e+03,1.61500000000000000e+02,4.16576340794563293e-02,-5.65881747752428055e-03,-9.04842838644981384e-02,-2.59941834956407547e-02,2.38671898841857910e-03,-6.37347176671028137e-02,3.09945438057184219e-02,-1.41114788129925728e-02],"split_indices":[1,5,1,4,5,8,4,0,0,0,0,0,0,0,0],"sum_hessian":[1.75706213378906250e+03,3.54980010986328125e+02,1.40208203125000000e+03,9.51624298095703125e+01,2.59817565917968750e+02,1.12634045410156250e+03,2.75741668701171875e+02,4.53264732360839844e+01,4.98359603881835938e+01,2.50508499145507813e+01,2.34766708374023438e+02,1.10476379394531250e+03,2.15766334533691406e+01,2.21464492797851563e+02,5.42771759033203125e+01],"tree_param":{"num_feature":"10","num_nodes":"15","size_leaf_vector":"0"}},{"base_weights":[2.92548369616270065e-02,1.74796149134635925e-01,-8.32474306225776672e-02,1.88009664416313171e-01,-1.61857068538665771e+00,-1.69776290655136108e-01,3.77960979938507080e-01,1.97099938988685608e-01,-1.75560271739959717e+00,-9.66911256313323975e-01,-1.28279596567153931e-01,-9.18702632188796997e-02,7.54440546035766602e-01],"default_left":[true,true,true,true,false,true,true,false,false,false,false,false,false],"id":46,"leaf_child_counts":[0,1,0,2,0,2,2,0,0,0,0,0,0],"left_children":[1,3,5,7,-1,9,11,-1,-1,-1,-1,-1,-1],"loss_changes":[3.00100154876708984e+01,1.92381706237792969e+01,4.13255805969238281e+01,1.43754730224609375e+01,0.00000000000000000e+00,2.86963825225830078e+01,2.90148277282714844e+01,0.00000000000000000e+00,0.00000000000000000e+00,0.00000000000000000e+00,0.00000000000000000e+00,0.00000000000000000e+00,0.00000000000000000e+00],"parents":[2147483647,0,0,1,1,2,2,3,3,5,5,6,6],"right_children":[2,4,6,8,-1,10,12,-1,-1,-1,-1,-1,-1],"split_conditions":[1.21500000000000000e+02,4.67999982833862305e+00,6.35000000000000000e+01,1.40500000000000000e+02,-1.13299950957298279e-01,3.45000000000000000e+01,8.84999990463256836e-01,1.37969953939318657e-02,-1.22892193496227264e-01,-6.76837861537933350e-02,-8.97957198321819305e-03,-6.43091835081577301e-03,5.28108403086662292e-02],"split_indices":[4,6,1,7,0,1,6,0,0,0,0,0,0],"sum_hessian":[1.83092639160156250e+03,7.98008911132812500e+02,1.03291748046875000e+03,7.93060791015625000e+02,4.94810485839843750e+00,8.70274291992187500e+02,1.62643188476562500e+02,7.90263305664062500e+02,2.79747080802917480e+00,4.19589347839355469e+01,8.28315368652343750e+02,7.26877746582031250e+01,8.99554214477539063e+01],"tree_param":{"num_feature":"10","num_nodes":"13","size_leaf_vector":"0"}},{"base_weights":[2.20143888145685196e-02,4.37497422099113464e-02,-1.09990656375885010e+00,3.16247679293155670e-02,1.58930790424346924e+00,-1.30825304985046387e+00,-2.67018020153045654e-01,1.07070177793502808e-01,-1.89193621277809143e-01,-8.23824822902679443e-01,2.05054044723510742e+00,-1.08541977405548096e+00,6.26732885837554932e-01],"default_left":[true,true,true,true,true,false,true,false,false,false,false,false,false],"id":47,"leaf_child_counts":[0,0,1,2,2,0,2,0,0,0,0,0,0],"left_children":[1,3,5,7,9,-1,11,-1,-1,-1,-1,-1,-1],"loss_changes":[4.39061088562011719e+01,3.30315589904785156e+01,5.58880233764648438e+00,2.92180671691894531e+01,1.69608612060546875e+01,0.00000000000000000e+00,6.60766983032226563e+00,0.00000000000000000e+00,0.00000000000000000e+00,0.00000000000000000e+00,0.00000000000000000e+00,0.00000000000000000e+00,0.00000000000000000e+00],"parents":[2147483647,0,0,1,1,2,2,3,3,4,4,6,6],"right_children":[2,4,6,8,10,-1,12,-1,-1,-1,-1,-1,-1],"split_conditions":[2.63500000000000000e+02,2.59500000000000000e+02,1.04999995231628418e+00,4.35000038146972656e+00,4.95000000000000000e+01,-9.15777161717414856e-02,4.45000000000000000e+01,7.49491248279809952e-03,-1.32435532286763191e-02,-5.76677396893501282e-02,1.43537834286689758e-01,-7.59793817996978760e-02,4.38713021576404572e-02],"split_indices":[4,4,6,5,1,0,7,0,0,0,0,0,0],"sum_hessian":[1.79753845214843750e+03,1.76431860351562500e+03,3.32197380065917969e+01,1.75159777832031250e+03,1.27209043502807617e+01,2.61160774230957031e+01,7.10366058349609375e+00,1.30592651367187500e+03,4.45671264648437500e+02,1.91510176658630371e+00,1.08058032989501953e+01,3.59619450569152832e+00,3.50746583938598633e+00],"tree_param":{"num_feature":"10","num_nodes":"13","size_leaf_vector":"0"}},{"base_weights":[-1.27046892885118723e-03,-2.59257465600967407e-01,7.90435969829559326e-02,-3.19787085056304932e-01,7.72339820861816406e-01,9.85642448067665100e-02,-9.76563394069671631e-01,-2.74387687444686890e-01,-2.03474402427673340e+00,-1.37182235717773438e+00,1.16965246200561523e+00,-3.41570019721984863e-01,1.35529041290283203e-01,4.20152008533477783e-01,-1.31931459903717041e+00],"default_left":[true,true,true,true,true,true,true,false,false,false,false,false,false,false,false],"id":48,"leaf_child_counts":[0,0,0,2,2,2,2,0,0,0,0,0,0,0,0],"left_children":[1,3,5,7,9,11,13,-1,-1,-1,-1,-1,-1,-1,-1],"loss_changes":[3.68495483398437500e+01,2.66107769012451172e+01,2.80434093475341797e+01,3.05473632812500000e+01,2.17889213562011719e+01,2.17259731292724609e+01,1.23867988586425781e+01,0.00000000000000000e+00,0.00000000000000000e+00,0.00000000000000000e+00,0.00000000000000000e+00,0.00000000000000000e+00,0.00000000000000000e+00,0.00000000000000000e+00,0.00000000000000000e+00],"parents":[2147483647,0,0,1,1,2,2,3,3,4,4,5,5,6,6],"right_children":[2,4,6,8,10,12,14,-1,-1,-1,-1,-1,-1,-1,-1],"split_conditions":[2.45000000000000000e+01,7.45000000000000000e+01,1.12500000000000000e+02,6.95000000000000000e+01,5.00000000000000000e-01,4.05000000000000000e+01,3.04999995231628418e+00,-1.92071385681629181e-02,-1.42432078719139099e-01,-9.60275679826736450e-02,8.18756744265556335e-02,-2.39099022001028061e-02,9.48703289031982422e-03,2.94106416404247284e-02,-9.23520252108573914e-02],"split_indices":[7,1,7,1,3,1,5,0,0,0,0,0,0,0,0],"sum_hessian":[1.77646520996093750e+03,4.21211212158203125e+02,1.35525402832031250e+03,3.98517944335937500e+02,2.26932773590087891e+01,1.33153747558593750e+03,2.37166213989257813e+01,3.89370269775390625e+02,9.14765357971191406e+00,3.16423249244689941e+00,1.95290451049804688e+01,1.02526718139648438e+02,1.22901074218750000e+03,4.62871694564819336e+00,1.90879039764404297e+01],"tree_param":{"num_feature":"10","num_nodes":"15","size_leaf_vector":"0"}},{"base_weights":[4.13464047014713287e-02,1.40562504529953003e-01,-2.55063235759735107e-01,1.20849452912807465e-01,1.13270199298858643e+00,-5.73189675807952881e-01,-5.31420931220054626e-02,-2.51588702201843262e-01,1.92878559231758118e-01,1.37430500984191895e+00,-2.31632310897111893e-02,-1.07842838764190674e+00,-2.77144581079483032e-01,-9.28862392902374268e-02,1.17139542102813721e+00],"default_left":[true,true,true,true,true,true,true,false,false,false,false,false,false,false,false],"id":49,"leaf_child_counts":[0,0,0,2,2,2,2,0,0,0,0,0,0,0,0],"left_children":[1,3,5,7,9,11,13,-1,-1,-1,-1,-1,-1,-1,-1],"loss_changes":[5.32226829528808594e+01,2.63768310546875000e+01,2.91269474029541016e+01,3.57369422912597656e+01,7.37395858764648438e+00,2.60467453002929688e+01,1.36759939193725586e+01,0.00000000000000000e+00,0.00000000000000000e+00,0.00000000000000000e+00,0.00000000000000000e+00,0.00000000000000000e+00,0.00000000000000000e+00,0.00000000000000000e+00,0.00000000000000000e+00],"parents":[2147483647,0,0,1,1,2,2,3,3,4,4,5,5,6,6],"right_children":[2,4,6,8,10,12,14,-1,-1,-1,-1,-1,-1,-1,-1],"split_conditions":[5.00000000000000000e-01,7.55000000000000000e+01,5.25000000000000000e+01,2.15000000000000000e+01,5.00000000000000000e-01,5.00000000000000000e-01,1.79000000000000000e+03,-1.76112093031406403e-02,1.35014988481998444e-02,9.62013527750968933e-02,-1.62142619956284761e-03,-7.54899904131889343e-02,-1.94001216441392899e-02,-6.50203693658113480e-03,8.19976776838302612e-02],"split_indices":[2,1,1,7,9,3,8,0,0,0,0,0,0,0,0],"sum_hessian":[1.80754626464843750e+03,1.35463879394531250e+03,4.52907470703125000e+02,1.32934741210937500e+03,2.52913131713867188e+01,1.75138442993164063e+02,2.77769042968750000e+02,2.15026290893554688e+02,1.11432116699218750e+03,2.07624816894531250e+01,4.52883052825927734e+00,6.37308425903320313e+01,1.11407592773437500e+02,2.69932128906250000e+02,7.83689594268798828e+00],"tree_param":{"num_feature":"10","num_nodes":"15","size_leaf_vector":"0"}}]},"name":"gbtree"},"learner_model_param":{"base_score":"0.500000","num_class":"0","num_feature":"10"},"objective":{"name":"binary:logistic","reg_loss_param":{"scale_pos_weight":"10"}}},"version":[1,0,2]}